needles 0.52581656 0.85983795 -0.32570612 0.4846108 0.7075654 -0.2883245 -0.88785017 1.1392815 0.29319447 0.55695254 -0.9097331 0.57202464 -0.2071228 0.50844455 -0.26863766 0.773682 0.6484277 0.39761448 -0.21927477 0.43842685 -1.2847198 -0.2552792 0.62539065 -0.4079015 1.3162336 -0.24292491 2.8738146 0.7033432 0.56593287 -0.3032479 -0.38585016 -1.2110323 1.0907245 1.1889952 -0.53764296 0.43803105 0.50613713 -0.75986874 0.1541604 0.12443828 1.8335449 -0.70381355 0.32412803 0.7247752 0.6606657 -1.4737465 -0.6855837 -0.19231659 -0.20197706 0.84979635 -1.4464959 -0.36370412 0.3061849 -0.36899632 0.05446985 0.10487589 0.32145596 -1.9936142 1.019193 -1.0612389 0.19886217 -0.40229735 -1.362662 -0.9384844 1.3686749 0.09421892 0.29351863 -0.91153187 -0.6084918 1.0161674 -0.33786526 0.23503117 0.42779073 -0.20829472 -0.07667949 0.3226734 -1.0828396 1.0474153 1.6392819 0.6328833 1.7255154 -0.44913706 -1.6036875 0.3158297 -0.2570224 -1.4170521 -0.43143418 -1.4650793 0.70633155 -2.0311086 -0.40417498 -0.4935753 0.30383143 1.0564079 0.19110914 -0.38956925 -0.46311826 -0.54608274 1.2327809 -2.4241624
ac 0.9301265 -0.8901542 -0.7270996 0.7950368 -0.42780754 -1.6031852 -1.2321306 -0.015953738 0.14055897 0.24358822 2.0108674 0.6060077 -1.5134045 1.3601766 -1.5448846 1.9937896 -1.4483764 -0.94961894 0.34631243 -0.5080579 -0.8478122 1.1301619 -0.2385934 -0.19447385 -0.99380726 0.17288637 -0.84307367 -0.9770561 -1.3246906 -0.14077279 1.0427064 1.0556055 -0.50022095 1.0610726 1.3853902 0.8729123 -1.4630429 -0.32185987 -0.9113696 0.18481511 -1.0698214 1.601739 -1.1408945 -0.77260995 -1.3837894 -1.5626267 -0.70189536 -0.58978605 -1.265725 -1.1678468 0.95845354 1.6088092 0.08607048 -0.21075659 1.5169691 -1.0972416 -1.3450272 1.5881072 -1.806482 0.11721145 0.5699051 0.40468806 1.6344972 0.21485454 -0.044390332 -0.19155446 -0.98450094 0.5916211 -0.27568898 -0.8025296 1.0342318 -1.8033582 0.18331434 -1.1012793 -1.3181713 -0.26832435 0.8293204 -0.21987219 -0.15490821 0.99018013 -1.4607759 0.58382124 -2.181955 0.05558752 0.671054 0.25804228 -0.4779318 -1.0526074 0.76401556 0.5287689 -1.7497457 -0.35552475 -2.0013459 0.051644642 0.3746962 -0.4679945 -1.5897471 -0.13196638 -1.6374042 0.84467596
meandering 0.0886695 -1.7354131 1.9312952 -0.4976602 1.2604479 1.5306145 -0.8461444 0.1764725 -0.47989476 -0.60469383 -0.52868474 -1.0480833 0.6663703 1.4217067 0.033275336 -0.91717106 -1.2488564 -0.8203737 -0.7663666 1.4796268 -0.9430086 -0.43923834 -1.5140703 0.39020652 0.83539957 -1.7428479 0.14346567 -0.70556325 -0.3391502 -0.4822867 -1.0907505 0.12816322 2.7448158 -0.51119876 -1.773216 -0.6910198 -0.075547285 -0.60594845 0.1280643 0.4607273 -1.1297606 0.7128154 0.7225626 -2.9097931 -1.1413677 -0.26245752 -0.24736527 -2.1467876 1.1171215 -2.2104263 1.0330027 -0.04212669 2.1924152 -1.1686027 -0.7120894 -1.5765479 -0.563723 1.6070153 1.7177562 -0.8037065 1.466623 -1.835391 0.5104416 -0.77931666 -0.58891207 -1.2884231 2.26107 -1.5050503 0.88599604 -2.6762674 -0.45555186 -0.5629001 0.91601837 0.1567681 -0.031622358 1.9472547 -0.25426102 -0.3869458 -1.5391085 0.9798869 0.4663648 0.120573945 0.4546869 0.45614427 -0.9198172 -0.82731247 -0.8406551 -0.2524069 0.9324652 0.26384935 0.10849248 0.9754923 0.018993491 0.82320577 2.1851292 -1.0404034 0.9091657 0.7209526 0.93622726 -0.554438
past 1.4609914 0.25774616 0.51501316 -1.2670269 -0.024645327 -0.47711426 -1.1397446 -1.4753096 1.5378687 0.15128483 0.9791233 -0.14751762 1.5095495 1.1965005 -0.97579765 0.23738815 -1.1599174 -1.2736212 -0.08606796 -0.8144988 -0.5359423 0.5641028 -0.029307183 1.8848037 -0.6896853 -0.7254962 0.6127039 1.7485592 0.5289932 -0.38343176 0.7298003 -0.0791215 -0.22764038 -2.1532085 -1.2710209 -0.15227462 -0.65901726 -0.19589034 1.048303 0.891722 -0.09421966 0.4340833 -0.021100082 -0.5749982 1.3571063 1.407838 -0.385253 -0.7968385 -0.10679105 1.0760344 -0.40572113 -0.5539059 0.8223971 0.4380946 -1.0664061 -0.2104846 -0.11141877 0.6885732 0.032657813 -0.8702217 -0.60711503 -2.1079872 0.9648045 1.4695146 -0.78796184 0.7830228 0.9073051 0.75505865 -0.62608874 1.7088481 -1.5688996 1.5950754 0.38998595 -1.2642542 0.19265163 0.1310662 -0.1777836 0.6909317 0.33463356 -0.14509076 -1.5666584 0.6528855 -0.7344056 -0.17717576 1.7024921 -0.41413093 -0.5580642 -1.2723826 0.6424121 -0.091322705 -0.39628598 0.6301888 0.7278555 -2.2593837 -0.036127742 -1.1889374 0.6594295 1.2579166 -0.77846557 1.7568504
chrimbo 1.0822079 -0.6647295 0.12630536 0.39218935 2.5276175 1.515686 -0.354598 2.2461262 -0.6673391 -0.42212072 0.7553243 2.7016995 -0.51954603 1.45853 0.10756374 0.6172333 -1.7452492 1.1968591 -1.3116102 2.277976 0.013703887 -1.7113409 1.5593497 1.3139384 1.0006936 -0.82462686 -1.3940415 1.2679325 -0.4199722 0.34226313 0.31874585 -0.40486664 0.3672955 0.35097072 0.4819043 1.5723962 -0.68037426 1.0478777 1.4835864 -0.5597965 -0.842691 -0.16616137 -1.5285754 -0.2230593 -0.15971817 0.48073572 0.52308434 -0.37187177 2.1014597 -0.60563177 0.089188546 1.6594524 1.3345002 -0.5737731 -0.9039348 0.9726342 0.067894176 0.37391078 0.37846774 0.623022 -1.31846 -0.1427982 -0.029383197 0.7082669 -0.584049 0.52315104 0.17392167 -0.01931759 0.5822613 0.5778944 -0.4289345 -1.1961068 -1.4787706 0.11344474 1.7730716 -2.2658365 0.5500933 0.6275233 0.6852307 2.2577064 1.1722959 0.20738398 -1.2631773 -0.28326494 1.0955594 -0.54727906 -0.74273 0.9199595 1.668378 0.39974335 -0.7166435 0.56880075 1.6678386 -0.661362 0.72777873 -0.30215862 1.0153689 0.7797973 1.2919167 0.0763374
joan -0.06419818 -1.1328677 0.20729241 -1.5751653 -0.09326274 -2.3140953 1.5458367 0.38863385 -0.07652072 -0.7962809 1.5118109 -0.021657798 0.87196064 -0.47749752 2.2930145 2.5843241 1.3040316 1.2184774 0.42194095 0.37404522 0.5670376 1.0395279 -0.7323776 -0.8601974 0.036379553 -1.3305117 -1.3825117 -1.1334822 -1.4475342 -0.29641855 -0.18047899 0.06806252 -0.33752552 0.6135406 1.005347 0.4257004 -0.031939045 1.6734934 -0.2970052 1.304687 -1.5974298 -0.82960427 -0.39716837 1.5786121 -0.31621477 -1.1559201 1.0156361 -0.31469038 0.25110877 0.73703074 0.11242887 -1.9219543 -0.6909281 -0.39030305 1.3118532 0.05835426 -0.41237277 -0.19645652 -0.57378554 -2.2528765 -0.9246886 0.5016535 -0.50334394 -2.47102 0.0034328348 -0.18264988 0.19793034 -0.10371775 0.86868656 -0.5841658 0.017440725 0.28037262 1.6203519 -0.43532223 -1.4093966 -1.548238 -0.24721912 0.17983142 -0.47029686 0.38344502 0.31113362 -0.8610632 1.7631658 -0.03146962 0.013318093 0.6221345 -1.798951 0.5552758 -0.010418254 -0.5678101 -1.2660542 0.35007933 -2.009104 -0.32862625 0.38747716 0.24970895 0.2789747 -1.1135893 1.3976399 -0.7165462
town -0.06318875 0.6170371 -1.5493618 -0.89152807 -2.490473 -1.7923299 -1.0532906 -0.7059093 0.027520625 -0.069180556 0.2685741 1.3888785 -0.41881123 -0.8667773 0.9125347 0.8060137 0.24304213 -0.4102743 1.0293325 -0.9808839 -1.9444994 -0.31636113 0.07647318 0.48335236 0.7482343 0.36633024 1.2465825 -0.66979665 0.23867631 1.8229027 0.59738636 -0.62357587 -1.0850393 -0.51803017 -2.1965184 0.7575488 -0.8791617 1.1961375 1.0705705 0.86126137 -0.76904976 -0.94062805 0.79456925 -0.8278982 0.6099981 0.21574765 -0.33362472 1.39591 -0.26755598 1.0105038 -2.0398493 -0.46229517 1.5315315 0.36397222 -0.6656722 -0.043326754 -0.25510696 -1.8474276 -1.3844833 0.28935924 0.24023573 2.1621993 1.142629 -0.35653943 2.1984377 -0.44822395 -2.4038813 -1.1706702 -1.2444587 1.4051149 -0.42948702 -1.0226982 0.5788426 -2.4382126 0.052312896 -0.05762674 -0.5277448 -0.366366 0.08084141 -1.5776678 -0.00975018 0.112839065 1.3627939 0.608155 0.07899911 -1.4837025 1.0658413 -0.3414186 -0.13362338 0.33838367 1.5539725 -1.2381617 0.68325573 1.247874 0.74444294 0.025283292 -0.8420053 0.59670156 0.23850833 -1.1604196
girls 0.37348592 -0.4304719 0.25359592 0.7570082 1.2722367 -0.4478597 0.3326763 2.240652 -0.6864902 -2.1558385 0.6258374 -1.8049123 0.5871733 -1.4798195 -0.49879414 1.4563695 0.4995232 -0.4873425 0.55278784 -0.37682313 1.5929595 0.75910085 0.08903976 -0.97651327 0.20499787 -0.8976824 -0.93220633 -1.0383093 1.4176328 -0.1411569 -0.157849 -0.7624997 -0.03534374 1.1917921 -0.015714364 0.4867319 0.06154766 1.6414042 0.7805361 -1.0337874 -2.0704248 -0.17095546 -0.6684933 -0.48972806 -0.7234301 -0.012838183 0.7644765 2.2754192 0.35085186 -0.39011574 1.9936023 0.095763855 -0.29437464 -0.022381423 0.20131665 1.1791264 -0.16308695 0.47526056 -0.37492996 -0.6523381 -0.11983508 3.3892987 -0.32808104 -0.99983937 -1.6734104 0.30115423 0.2500321 -1.212493 -0.9819951 -1.3015336 -0.36177164 0.95125675 -0.02792943 0.16063459 -1.1192454 0.90837836 -0.30769634 -1.1581305 -1.8998035 -0.9009072 -0.1436047 0.66553944 -0.10032801 -1.7928905 -0.39393276 -0.6034639 -0.14274089 1.0828127 0.8922499 0.40968555 0.82482964 1.6564407 1.1542608 -0.88284516 0.30658916 0.63507783 1.9344286 0.72504973 0.49636704 0.23144002
victory 0.30974007 -0.08965301 -0.8875317 1.0672253 -1.0334252 -1.0551926 1.0684464 -0.69213253 1.8946431 0.06771804 -0.07676088 -1.9422528 0.5582597 -1.8942275 -0.17063716 0.65825623 1.770977 -0.21319598 0.3416183 1.6784878 -0.37888756 -0.23155557 -1.2306099 0.16621405 0.30055285 -0.9964492 0.3000934 0.9394546 -0.49952602 -2.5799906 -0.22799756 0.58445907 -1.2085605 -0.12636021 1.4692978 1.4782699 0.544465 -0.61962056 -0.30840135 -0.038541496 2.2108383 0.5207644 -0.4199947 0.11874527 -0.64600325 1.948006 -0.079212904 0.2507515 -1.6253531 1.0705982 -1.0918796 0.89507496 0.26918066 0.5506303 1.0988933 -1.058103 1.4040493 0.40327248 -0.95571285 0.86236054 -1.081395 -0.5458319 -2.1062613 -1.4441873 -1.1156721 0.19872022 -0.6727754 -0.3098268 -0.38785163 -0.4855906 -0.5140902 -0.70619124 0.9721468 -0.01434039 -0.39410022 -0.4302121 -1.1745576 0.06028819 -1.3920224 -0.69395775 -1.357039 1.704966 1.2870814 2.000073 1.4297227 -0.95661294 -2.4076612 -1.0526738 -0.5432487 0.64557827 0.41608587 -0.14007689 -1.0265261 0.13182475 1.9276196 -1.0201163 -0.79795873 -0.25999743 0.79128575 -1.8015624
frustrations -0.76087064 0.52246445 1.2119942 -0.7805394 -1.1458905 0.46275738 0.70269907 0.26795092 1.2921306 0.6685746 -0.7051393 -1.6130992 1.1247993 -0.71670246 -0.82993674 0.82273585 0.8068622 -3.3785822 -0.074871026 -0.27979654 -1.8857512 -0.21393791 0.30091333 -2.9309883 0.42442042 0.4921901 -1.3924557 -0.80726653 -0.1907381 -0.89907753 1.0338917 -1.3725394 -0.49351016 -0.24273154 -1.3856429 0.55913603 0.5551089 0.9964083 -0.69116193 -0.23371203 1.0879726 0.27251273 -0.4642589 -0.99779075 2.5590274 0.7043449 0.8791271 0.17385495 -0.4730833 -0.42564523 -0.5948037 0.12655601 -0.8022754 -0.7189637 1.5567759 -0.4906881 1.9978864 -0.77384055 0.13696317 -0.33877826 -0.66325223 2.4331162 1.6271464 -0.3431057 -0.1478829 -0.47308388 -0.2270178 1.5587987 0.28424802 -0.24270537 0.8846635 0.15197974 0.9439339 1.2925161 0.78830826 -0.85289925 0.56918657 1.106329 1.2537823 1.5711573 -0.39503324 -2.4342318 2.6625717 1.0604581 0.5940475 -0.52863 -0.96175474 0.46451625 0.5563766 -0.057814386 -1.6544852 0.6196646 0.65333253 0.63614 0.39237538 0.05790139 0.287231 -1.4734559 0.1570057 -0.52324957
puts 0.9198999 -1.9133512 -0.5269097 0.9075061 0.42767644 0.027899012 1.1476021 0.06634544 0.19201162 0.18288308 0.1572145 0.45308214 -1.3555801 -0.22580826 -1.8161107 1.2281008 -0.6544455 -0.73786384 -0.071555465 -1.2811774 -0.5837146 0.42922533 1.7732927 -1.8956987 -0.69677657 0.8365591 0.40214404 -0.23268998 -1.229444 0.8977466 -1.259291 0.479735 0.3280964 1.4712509 -1.681629 0.0979771 1.677827 -0.36696723 1.3072152 0.18375105 0.21981321 -0.37467456 -0.5573798 0.19993244 0.7370079 2.2534478 1.2240062 0.35005838 -0.30964035 0.4150962 0.0883368 -1.05642 1.2257694 0.20768718 -0.2754527 0.55605626 0.5909143 0.32832533 1.6551362 -0.2313615 0.9404898 0.5915549 -1.0269871 -1.1342721 -2.1850815 -1.5478077 0.7824768 -0.3040169 1.0994399 0.018658647 1.14656 0.25772178 1.4827194 0.25979912 -0.1418522 -0.08631511 -1.1315776 1.5468485 0.2717573 0.87630963 0.12654382 0.3488767 -0.58471256 0.357243 -0.5574048 -0.14071453 -1.3578999 -0.9754358 -1.0089788 0.9464679 2.294937 1.492592 -0.28198472 -0.98232484 -1.6403505 -0.44125274 0.25303194 0.15997452 -0.11671942 -0.20405947
times 1.038126 0.81498927 1.7974057 0.6231763 -0.3178658 -0.4318129 -0.34141257 -0.06835428 -0.81181526 -0.18572317 -0.12899289 0.43466258 1.7832049 1.5219911 -0.15920405 0.62564063 0.19834185 -0.70039344 -0.6735343 0.05606593 -0.92091775 -0.6919289 -0.91105074 -2.221358 0.63914615 -1.1721501 -0.059122458 0.15904038 -0.24726222 0.5051518 -0.26104763 -0.14249694 0.9395805 0.21292964 -1.7729453 -0.14835526 -1.36389 0.837474 -0.97697365 -2.2150667 -0.45726007 -1.5016798 -0.006434313 -1.5001484 -0.64826363 -0.2696293 -0.637931 -0.14171636 0.029262686 -0.8773211 0.1325467 -0.43756035 0.71084696 1.6469793 -0.8682973 1.2026114 0.23258914 -0.2266621 0.49394923 1.0129249 2.0354311 -0.47330046 -0.19224332 -0.67727005 1.1200516 1.5846001 -0.8602931 -0.49942416 0.13030426 -0.92172307 0.86846656 -0.66030985 -0.8672036 -0.32178387 0.16379456 -0.44377613 -0.36243293 1.230697 0.16945632 0.89141303 1.175253 0.6305742 -2.315473 -1.9857953 0.0039699343 -0.63040143 -0.38826913 -0.105389625 0.1896702 -0.4884374 1.4355605 -0.7181305 0.2022418 -0.0100959 0.4618414 0.97448814 -1.5577346 1.4782606 0.38084996 -1.1600344
lmfao -0.067582645 2.1107087 -1.9202015 -0.7690578 -2.7928455 -1.0245849 -1.0993636 -2.4063122 -0.23787361 0.8620023 -0.4079028 -0.76735735 0.03858175 -1.2429538 -0.15385531 -0.42144826 -0.6526478 -1.4080715 -0.2099177 0.96973354 1.6951103 1.9742329 -2.0169063 -1.0451149 -0.9133866 2.666068 -2.8502116 0.63070863 0.6104627 0.105075106 1.3571522 0.5188559 0.17840874 0.3245648 -2.2554276 -0.9294936 -0.1485696 0.8343691 -0.20710504 1.5909706 0.931845 0.68058985 -1.2786222 0.642877 0.6642851 1.0241597 -1.0572197 -0.847412 -0.8072559 1.1067744 1.1520511 -0.2399892 -1.562962 2.0257206 -0.9358249 0.7532352 -0.9220489 -1.9333856 0.60606456 -0.76432836 0.32056937 2.4171567 0.7003861 0.37957677 -0.85975283 -0.44859397 -2.3926713 -2.2426953 -1.9391013 -1.605035 0.88129246 1.1552747 1.4979174 0.7124828 2.860376 1.3029695 -1.0922133 1.0909284 -1.3159817 1.0051547 -0.9547014 -0.7894642 -1.053731 0.64306545 -1.7369632 0.99379086 0.16103263 0.013517532 0.58267796 -2.7356892 1.1618263 0.79289895 -0.6521909 1.0864707 0.37588635 -0.9360172 0.074721694 -0.088626675 -1.2432421 0.09284167
word -0.0011846565 -0.25012606 -0.21345672 1.3562156 0.5085864 -1.8316764 0.6741104 -0.59774166 -0.69591784 -0.31591785 0.88982254 0.49379048 0.35815623 -0.08539395 0.6242666 0.05014131 0.4144474 0.75562006 0.40835938 -0.44635692 -0.88377786 0.37767637 -0.24057154 1.1352316 0.95853174 -0.58490705 1.6560612 -0.4927479 -0.2250787 -0.680281 2.2189143 -0.23947203 -2.1771798 0.7777987 0.8084712 -1.2222137 -0.013643294 0.23768137 -2.0246413 -1.1914233 0.45691523 0.9416443 -0.16837506 -0.81828165 0.35651112 1.8180379 1.4073722 -0.09826976 -1.0243601 1.6370534 -0.4788978 -0.51657 1.1416768 -0.4107684 -0.3487314 -1.5635059 -0.9864741 -0.9633238 0.84215206 -0.11380952 0.43670478 1.6679915 -1.5292335 0.19502744 1.4776964 1.3618754 -0.23976788 -0.2940067 0.31904152 -1.4181042 0.7450729 0.21140483 -0.2849877 0.105775155 1.9824811 -0.89300793 -0.125462 -0.47572982 -1.4734699 1.1273097 1.0555528 -1.4383081 -0.34889868 -2.0285547 0.18253814 0.7377824 2.226112 -0.512018 1.0301816 0.50868326 0.007303346 0.5570679 0.1874116 -0.0061448375 0.53052515 1.8775613 -0.5934857 0.29154822 0.30275777 0.063921824
pop 0.4093805 0.9197224 -1.0337185 2.0829713 0.17321828 1.0912547 1.1088892 0.20275868 -0.29473162 -0.38651294 0.92702174 0.76504976 -1.4737997 -1.1945777 -1.006058 -0.064633325 -0.9483929 0.5652929 -1.0398796 -1.3904462 -2.0929487 0.7555139 -0.4099468 -0.76168877 -0.7816333 -0.09087677 -0.065890536 2.2897534 -0.46564126 0.8899514 -0.26486707 -0.04496866 -0.9546359 0.47992566 1.0783951 -0.760382 0.90903515 0.65200436 0.461828 -0.595432 -0.35066447 -1.1774876 -1.720502 -1.5824746 0.38702646 2.0312757 -0.606294 0.15693732 -0.75619036 -1.3627974 -0.7405705 -0.0451806 -0.36635068 -1.7945316 -0.79103583 -0.75974864 0.19183974 0.23844364 -1.5617621 -1.2220033 0.8892891 0.54403245 -0.7746822 -0.8703691 0.4401932 -0.48073018 -0.78215414 -0.3444715 0.04033508 -0.21068676 1.0492811 0.19549276 0.0544007 1.4380534 0.81437707 0.765721 -0.52120084 0.6928012 0.954192 -0.71163785 2.0557117 -1.7454345 0.32193625 -0.28632474 -0.3805979 -0.047904763 2.0700965 1.5450708 2.4880998 -0.06249728 -0.40287152 -0.33620065 0.13502827 -1.6088842 0.14012064 -1.1094605 -0.43127668 1.9606085 -0.3094388 0.48978287
indian 0.2493614 -0.42075008 -0.70780265 -2.0939853 -0.583586 0.5393334 0.5314068 -0.09492267 -0.01645572 0.064909115 -2.2425082 -1.416007 -0.29583612 0.8561997 -0.454939 0.37063077 -0.9129193 -1.0781612 0.59848017 -1.0334809 -1.5911452 0.19715713 -2.071786 -1.5286068 1.8611003 -0.9798089 0.23857328 0.046126332 -0.84792787 2.0166323 1.2808347 -1.4564444 -1.2751144 1.1118759 1.1066344 0.15867543 -0.62664384 0.84484875 -0.11521703 -0.8306736 1.5283846 -1.968266 -0.62055033 0.6707279 -0.17911501 0.78134 -0.18563357 -1.9335628 1.0075768 -0.11483111 -0.6293595 0.08126485 -0.6067665 -0.49816757 0.9191069 0.9040879 -0.007164073 0.11999059 0.9213134 -0.19642486 0.6800094 0.36486363 -0.36757407 1.2240384 -0.86374956 -0.37708437 -1.1655489 -0.91019666 -1.7491742 -0.6201989 0.4769426 -1.7119178 0.11794394 1.401806 -0.41711918 0.45219123 -1.1962267 -0.9431301 1.1249578 2.0643513 1.015485 -0.07357728 1.2530444 1.7598124 2.1771123 1.0376302 0.58927596 -0.30258936 -0.08782124 -0.5205553 -0.8101808 -0.4978505 -1.0966219 1.4278184 1.3211306 0.034995902 0.18303692 1.6014328 -1.2989401 -0.084554076
wish -1.2911358 -0.9817937 -0.6308028 -0.7678086 -0.95930713 -0.8413352 -0.9698674 2.031802 -0.43203884 1.2070979 -0.669538 -0.6613371 -0.5188981 0.5628047 -0.69551396 0.14951114 -0.8740072 -0.8301342 1.7622842 1.2890735 0.015673526 -0.62405044 -2.7018075 -0.11741644 -0.7236112 -0.4299365 -0.3113752 -0.2287427 -2.6998367 -0.49671355 -0.18611167 -0.6608877 1.2424991 -0.22148192 -0.25793126 1.9503875 -2.8379881 1.7926269 -0.47948167 -0.4537363 1.8131374 0.9199477 1.1876243 0.061776146 0.4237169 -0.22590582 1.698002 0.95885986 0.26849905 -0.35558963 0.6194012 -1.4970293 0.53122133 -0.51484025 -0.32246312 0.7510758 -0.13892333 -0.99115205 0.7218806 -0.52687675 -2.2343895 -0.76289964 -1.8932887 -1.1111339 1.4922304 0.45761225 1.6909143 -0.11921098 1.0770968 -0.54556656 -0.39986426 0.069011904 0.33673444 0.6525437 -0.55023885 0.013090316 0.801256 -0.19444178 0.26778197 -0.34964213 1.566718 -0.24088597 0.010057834 1.9719406 -0.35182452 0.33194733 0.055026382 1.5710353 0.49979162 1.1079562 -0.7659355 0.08953937 -1.5279131 0.077177145 -0.105907574 -0.27981108 -1.0330669 0.27321398 0.79226834 -0.62629193
let 1.001202 -1.0272279 -1.5461838 -0.21381406 0.49913836 0.6050448 -0.4974296 -0.053157188 -0.7990006 -0.42649817 0.27851513 0.8578987 -1.0624467 0.9796777 -0.73461884 1.0065796 0.61740094 0.10313105 1.0102396 0.53759795 -0.17737184 0.25775272 0.27615267 -0.71959895 -0.44911337 -0.6165418 -0.73639417 0.3234245 -0.30293003 0.1572456 -0.102999784 -0.038931713 0.48505127 0.74204814 -1.2374444 -0.72253215 -0.852345 -0.19541435 -0.40167722 0.9956371 0.24700105 0.35766742 -0.43948978 -0.53727496 0.05762968 -0.6572406 0.5282477 0.5520345 0.32121736 0.06885431 0.98470634 -0.384159 -0.9487231 0.9671943 -1.0710707 -0.23225845 0.53817827 0.37093037 -1.9113287 0.2406824 0.10434639 0.12795705 -0.5873148 -1.1420488 1.650592 0.26154715 0.418168 -0.3351695 -1.5537252 -1.1378499 -0.78644496 0.13856433 -0.9961893 -0.51461416 -0.095106065 0.62795943 0.38484997 -0.9112065 -0.81847054 -1.1938919 0.33737183 0.7037107 0.588789 0.819218 1.1407579 0.3442769 1.2845869 -0.48176673 0.13988173 1.6248037 -0.88257635 -0.48245618 -0.20631038 -1.1408937 0.16395132 1.4772267 2.5785758 0.23653722 -1.5505266 1.040435
fared -0.18467304 2.34577 0.30597496 -1.2198026 0.4060902 0.7008975 0.40115178 0.34228835 0.79929566 0.13980062 0.35544392 -1.2376564 -1.5879966 -0.13415897 -0.12723187 0.38220516 -0.2963471 0.12131095 0.53404313 1.9282016 1.9080722 1.0268416 0.8120516 2.6310532 -0.030295903 -0.13063082 -0.8928385 0.40304706 -0.6128678 -0.31216586 1.2721618 -1.3052516 -0.4259396 -0.601362 1.7519826 -0.030766124 -0.60419154 0.00025355243 -0.2724893 -0.20238511 -0.55457735 1.1936066 -0.30644095 0.19304448 2.1895409 0.056051794 -1.1466057 1.2158937 -0.11346048 -0.5943942 1.7992929 0.9051401 0.4205423 -1.5730033 0.54477763 -0.91058064 -0.45484236 1.4208384 -1.5680203 -2.3761349 1.2604392 1.1474296 -1.2745446 1.1780139 0.2751982 -0.3162259 0.123184934 2.6667495 0.7279651 1.436528 0.7123252 1.0774618 -0.03169334 0.012562454 -0.2900663 -0.43438816 -1.0425339 -2.5922878 -0.21186934 0.7862992 -0.61881846 -0.532222 -0.4826651 1.6389904 1.6475832 1.3552647 0.99698424 0.3541557 0.27012122 0.44137913 -0.41021106 -2.0410411 1.3051794 0.08167973 -0.63619304 -1.2231463 2.1502419 -0.8832577 -2.765318 0.556657
slide -0.43965062 0.7011121 1.0826962 0.86644816 -1.2658687 -0.6193347 0.100286864 -0.3771739 0.10097076 -0.024357457 0.49581477 1.7707875 -0.05312305 0.96263015 0.70473796 -0.6070903 0.0001508447 1.447195 0.52089554 -2.4015017 0.76804703 0.22506952 -1.0739474 0.46073434 1.0291117 0.096080326 0.45162582 1.8648305 -0.020939602 3.1123276 -0.75985175 -1.0964252 -2.2967277 -0.58027595 -0.43900093 0.4732213 0.16102572 0.062386233 0.5996267 -0.9620406 -0.21253973 0.8276169 -1.6963116 -1.0964336 -0.64290464 0.09052791 -2.3110416 -1.3121494 0.034815922 -0.82548463 1.299723 -0.4630316 -0.05683682 1.0621014 2.001484 2.2424672 1.4437054 0.34943885 -1.8021357 -0.26141697 1.6793376 0.6428696 -0.6518858 0.4967865 1.552635 0.21678205 0.91186297 1.2995542 -0.85514784 -0.55266154 0.31175303 1.0514095 0.73078084 -1.1653063 -0.17405753 -0.38496792 0.73137057 -0.2084064 0.28451157 -0.41537848 -0.3041375 -1.0584961 2.6157315 -1.0868907 0.27090645 1.5201851 2.2401001 -1.1158667 -0.14521335 1.1480055 0.22731361 -0.8990792 0.6092233 -0.5815287 -1.5054451 0.07352549 -0.8788147 -1.7615105 -1.7985902 -0.74356633
meadowlands 2.084749 0.43409213 0.531386 -0.7171598 -0.23264003 0.9115492 3.7128646 -0.5256675 -1.3974056 -0.35000888 -1.1933731 -0.94327843 0.13917227 0.79924506 2.257647 1.5268562 0.28170037 -0.67079985 -1.8118472 0.5026001 -1.0024959 -0.15958075 1.2150264 0.19185759 1.325399 -0.9715028 -0.38452318 0.77150387 -1.3315406 -0.40244764 -0.85448766 0.05564896 1.558399 1.0618937 -0.44790068 -0.05355578 0.49681616 -1.625238 -0.7881803 -1.1581911 -0.41101408 -0.41308883 1.5486566 -1.0151099 -0.49157307 1.0259556 0.6019269 0.41183868 0.42120034 1.2023891 0.65226656 -0.85502934 -1.0508226 -1.010453 0.74239975 -0.4203863 -1.137256 1.5144855 -0.72683406 -0.4009495 0.9389378 -0.25127095 -0.21282825 -0.51466393 -1.2314194 -0.6932398 0.35978493 -1.5078686 0.22808409 -0.061278567 -0.56588376 1.455758 -0.42442006 0.1778353 1.0183394 -1.1546116 -0.86603487 0.3121653 0.055375528 -0.5871955 -0.09186302 0.5392402 0.4436169 0.2737971 0.3761924 0.7065636 -0.43651137 -1.3434461 -1.8015014 -0.4429063 1.8168906 0.94547594 2.5266914 1.5796062 0.06202774 0.8253485 0.07340825 -0.096912205 -1.0102247 -0.3425447
rotten 0.5280429 -0.90415806 -0.31536502 -0.24491888 1.4957616 0.0332265 -1.131987 -0.046196535 -2.028646 1.4256694 0.12845954 0.12446499 1.3241607 1.3153971 -1.0332409 -0.54455304 0.49011174 -0.050181843 -0.320592 0.32500616 -1.4531144 -1.8578941 -0.42476818 -0.28146374 1.3092768 0.75979024 -2.091517 0.8448761 -0.6539661 -3.1069007 0.022933561 0.84102356 -0.7006243 -0.38855287 0.09556513 -0.7776027 -1.1611363 0.8532404 1.0358299 -0.66565824 0.105830126 -0.58801347 1.5266476 0.14244467 -0.40972307 -0.8260595 1.8462915 -0.76209205 -1.1137631 1.0482998 -1.1355997 -0.035181206 0.30961096 -0.7163448 0.78033686 -0.28265363 -0.9126986 1.1653142 -0.4157349 1.0766987 -0.03133539 -0.9469469 0.46709675 -0.10812445 -1.6826121 -2.2449608 -1.5666721 -0.088533 -0.7603449 -0.20099303 -0.40464285 -2.081346 -1.9804721 -0.29573417 -0.62342745 -0.7284299 0.7638516 -1.4197832 0.2765269 0.53420526 -0.40069553 0.179888 -0.6316244 -1.0407004 1.5349714 3.719649 0.7216931 -1.6319166 -1.0545595 -0.07578997 2.553084e-05 -0.005156076 -0.32528055 0.35887 2.0288467 -1.4476067 0.78300774 -2.2313151 -0.86189055 0.38082337
sounded 0.24511059 0.01264069 -0.18678743 1.0721339 -0.084858574 2.1971147 -0.19380066 -0.036181387 0.71321833 -1.1487212 0.12603731 -0.5210076 -0.47080806 -1.3965768 2.4006658 0.99396926 -0.8537406 3.0680337 -1.722643 -0.19328284 -0.16888934 0.83142114 0.35832956 -0.31484452 0.830018 -3.277316 -0.36028433 0.89456624 -1.5189084 -0.32526708 0.37866697 -0.7210476 1.742686 -0.38958624 -0.5558681 -0.5508662 0.4891471 0.3012719 -1.3598367 1.0508415 0.92149395 1.3983209 -0.5159916 1.0375608 -1.434201 0.2915241 1.2423966 -0.64284694 -0.41024458 0.36040482 2.3124812 0.03282733 2.5341837 0.1135882 -1.0454495 -1.3408577 1.034193 -0.38112858 0.49653316 1.3658204 0.58474404 0.641204 -1.2995907 0.97734654 -0.65589726 0.6544539 1.0446897 -0.36576983 0.16031867 0.42940253 -0.29672992 -0.056310993 0.12152141 0.6132759 -1.0625948 -0.20079795 0.22863148 0.24331523 1.689724 -0.0795793 0.8035137 -0.59883255 -1.7724032 -0.39449534 -1.0108869 0.30935404 -0.11683425 -1.0331666 -0.29490396 -0.9811797 0.15575418 0.96441805 1.8708586 -0.3550186 1.0247061 0.30805665 -1.4277979 -0.92178386 2.2242637 0.32564372
charlie 2.1463525 0.6192654 1.3816409 -1.7539078 1.3075994 -0.26376966 0.6901047 0.64706635 0.70810336 -0.69679254 -1.104354 -0.81088024 -0.76376855 1.3581852 -0.23986931 -1.655894 -1.1646068 -1.0829438 -1.3131589 0.33024442 -1.2301279 0.91611063 0.3631381 -0.36260128 0.6166467 0.89903325 -0.10450415 -0.0032952055 -0.6353357 1.4156712 -0.009149252 0.9370543 -0.2710949 -1.4953071 -1.4615947 -1.0235127 1.7177206 0.35594043 1.498041 -1.1536847 0.3448009 -0.4698991 -1.6412687 0.6696154 -0.85703516 0.36420366 -0.17058551 -0.41618297 0.94088674 -1.1566074 0.024907647 -0.07797142 0.54910266 0.11838825 0.28337643 0.48417333 0.87177414 0.87193686 0.22758363 0.8257189 0.20659387 0.35455084 1.5596086 -0.9989886 -0.038651027 0.257244 0.35464954 2.077143 -0.03900795 0.45655853 -0.27167422 -1.0212188 0.2984105 0.51442087 0.02874654 -0.6347095 0.60395783 1.0254974 -0.63396394 -0.97603786 0.34514576 1.2168093 0.9598051 1.6969125 2.0876713 1.303762 1.0074892 -1.1070974 0.6127284 -0.82089967 -1.250473 -3.1788595 -0.50862867 -0.5033172 0.1133756 -1.5583448 -1.367892 1.9075326 1.1874771 -0.57350004
compensation -1.9838562 -1.4750758 -1.3364228 -1.7844293 1.5811696 0.1471377 0.21494105 0.6549395 -0.8825815 -0.39509556 -0.8315793 -0.7931151 -0.09188599 -2.5350533 -0.38982198 0.51237553 0.32552856 -0.2522987 -0.23706686 1.3928928 -1.2049992 -0.8517545 0.17410958 -2.7897491 -1.968986 -1.1434705 -1.9394327 -0.0042263786 -0.101077184 -0.87633914 -1.2081331 0.7540711 -1.2644949 -1.3987732 -0.65098244 0.10862455 0.6292879 -0.84865904 1.796988 0.51719993 0.08400245 -0.64798844 -1.2755477 2.4138713 -0.11469392 0.31743598 1.3185269 0.41159263 -0.90083086 -0.01508601 1.4909629 0.2834576 1.7167982 -0.28861687 -0.2605419 2.6789281 0.14176925 3.187021 -0.19222854 -1.6686658 1.5223428 -0.56145865 -0.4517286 0.4597007 1.9364368 -1.1050935 0.047355004 1.0669315 -0.81398296 -0.26901326 0.40896562 -1.4122164 1.9045993 0.48001128 -0.49018273 -0.36961952 -0.38104394 1.1211721 -1.9636488 -0.70986515 0.5197413 0.90568095 1.2137332 0.48840812 1.2186303 1.5471213 -1.3468038 -1.5502198 2.39517 -0.7597891 0.216397 0.24233906 -1.3923943 1.4369496 1.1797236 -1.7482262 -0.74234897 1.3370725 0.4756155 -0.69269127
jumped -1.1633283 1.446561 -0.020812718 0.8173458 0.35379532 -0.17299077 0.52724695 0.27934954 -2.3114295 0.4934477 -0.84759444 -0.018970627 -0.43807828 1.5434729 -0.16511482 0.43907887 0.33796826 0.7961272 1.3529671 -1.844036 1.1217451 0.32546094 0.56475365 -0.5998735 1.3359467 0.86565137 -1.2262964 -0.050154407 0.5976096 0.44166133 1.4727179 0.056429826 0.18538417 -0.47942078 -1.3160926 0.4889947 -0.31140113 0.89928097 -1.0924404 -1.8377082 0.5145097 -0.5226291 0.20433865 -1.2345458 -1.6152143 0.19987546 -0.5179766 1.452901 0.31695232 0.22531258 -0.64371115 -0.20508365 -1.3861331 -0.089425 -2.0108569 -0.14429906 1.3529902 1.3249927 -0.37622568 0.10776955 2.1256666 -2.3391411 -0.89133424 1.0172961 0.1406374 -0.22374795 0.59668374 0.501143 -2.0926714 0.2908665 -0.0012801558 1.787761 -0.34448898 0.34497428 -0.39674932 0.667699 0.11809519 0.27617538 -1.172312 0.8354142 0.04818959 0.6336828 -0.7644619 -0.13905399 0.47370997 -0.1438153 -0.6940584 -0.0018867847 0.24614094 0.35541373 -0.6482522 -2.0985985 -0.42613435 0.6064441 -1.6454868 -0.72396696 -0.026560921 -0.25307548 0.32601622 -1.4612117
dust 0.45806605 -0.6978697 -0.13286273 0.17377186 -0.55176175 -0.3551334 -2.0713487 0.4032645 -0.73521185 -0.84885305 0.10442937 0.65765667 -0.655319 0.42734256 -0.47163153 -0.93622607 0.51501244 -1.109499 -0.23325321 -0.25784224 1.3248266 -0.54434085 -1.1201774 -1.3248835 0.27336788 -0.9878321 1.0808003 -2.0972788 -1.0889952 -0.21287695 -1.2671249 -0.83027303 -0.6353425 0.012900548 -0.30293134 -0.6291682 -0.5353909 -2.3405888 1.3482897 1.2753134 0.8201311 2.2359643 1.4468533 0.842813 0.7952974 -0.38637608 -0.833481 0.26432356 -0.63095355 1.0996219 1.9042658 -0.93426275 1.0069124 1.0505043 -0.8637761 -1.1044811 1.1392968 0.54433376 0.4465598 2.587926 -0.7379211 -1.2511692 -0.50278723 0.15225163 2.169334 -0.42533576 1.2068262 0.8636797 1.1275635 -0.5567697 0.05329853 0.7112444 1.3109591 0.27009583 -2.7427595 1.1013669 0.9168196 1.1773143 0.46142042 1.7982893 -0.67943925 0.93987715 0.47421256 0.77486193 0.10074478 0.09174849 0.887399 1.3070319 -0.74122477 1.6654626 0.22176772 1.0485305 0.13526367 -0.5511283 0.5805049 0.20654275 1.2231767 0.7704543 -1.6112272 -0.12301176
seeing -1.3880975 0.34686923 0.41147164 -1.6550574 0.48517695 1.2699299 -1.1025114 -1.0878458 -0.58720785 0.13382122 1.5638604 0.61583555 -0.8883071 -0.16215423 -1.6668097 -0.7209758 1.178303 1.0196713 1.3635539 -0.79770297 -1.3638965 -0.4927722 0.18634857 0.07728569 0.5071696 -1.9516932 1.0832297 -0.0079590455 -0.6383583 -0.0868512 -1.1651719 0.42429376 0.57864404 -1.5683608 1.959703 -1.185443 -0.8296708 -0.79020435 0.40205356 1.4702488 -0.64231604 -1.3122222 0.16122858 0.38960734 0.49757385 -0.44451258 1.9432877 0.714864 2.4307866 0.24170421 -0.22198245 1.2489946 0.10423708 -0.8159034 0.123306476 -0.7266502 -0.44784293 -0.62463874 -1.3000842 0.2972044 -1.5284395 -0.12185325 -0.21208826 -0.17218843 0.3223944 -0.80453885 -0.5654595 2.748006 0.68676436 -0.14725201 0.57061154 0.33041576 1.2086873 1.1401838 -0.7255455 0.88199353 0.72509867 -2.1150317 -0.3878642 0.68666464 2.7065241 1.3122587 0.57777035 1.0298811 0.61454725 -0.7282272 -0.70248663 0.06824583 1.0242523 0.048013736 -0.076848894 -1.9703953 -0.55103034 -1.0669749 0.1819889 0.5491901 1.6057187 -0.020445026 -1.2247838 -0.6170175
appointment 0.99823725 -0.83556855 0.4661306 0.7826277 -1.0135822 -0.48058587 0.37606505 -0.1885153 -1.5632663 0.8141567 -0.27631217 -0.24819213 0.14660501 -0.6012604 -0.86765814 1.4680384 0.43923426 0.52814204 -0.4130295 -0.08143284 -0.4846907 -0.43348333 2.0375245 -0.32506093 -0.46826237 -0.86845654 -1.6062092 2.116427 -0.51837987 1.3798858 -1.8661333 1.2456023 -1.2881757 -0.5311403 0.7105855 -0.17478058 0.77055436 -0.40888274 0.9299615 0.14055842 2.701772 0.12434482 0.57740986 -0.1786755 0.52228665 -1.4103867 1.0693389 -0.16238214 0.36797193 0.07605199 1.1643418 -1.3461425 0.85642296 1.2035016 -0.21878791 0.81304485 1.4711311 -0.5655664 0.24865651 0.044982098 -0.27206436 -0.13792868 0.90672815 -0.0977872 0.6170718 -0.831244 0.7364746 0.2940168 -0.068289585 0.2072572 0.28744972 -1.109061 0.14066473 0.6328812 -1.114236 0.0029854418 1.8105457 -1.1147467 0.42734924 1.3250774 1.5965477 -0.34813386 -0.07164578 -0.083266616 1.1131113 1.1109518 -0.34168985 -1.113246 1.3499974 -0.7030439 1.1342782 0.9981429 -0.83731616 1.5776716 0.9281624 1.3198143 0.24656418 1.7063439 -0.6982799 -1.1973348
silent -1.4970659 -0.25673664 0.17123558 0.81023633 -1.0061221 0.011541745 1.1355875 -0.644545 -1.6023535 -0.9246461 -0.4730758 0.5183118 -0.10101499 0.7682622 1.1637526 0.34354657 0.6133446 -1.3036145 1.5357424 1.2647482 0.48263347 -2.1286974 -2.2615929 -1.1909446 -0.1069683 -0.49215963 -1.1423106 -1.0135663 -0.41551247 -1.0481051 -1.2217814 -0.59707683 -1.4000552 1.0310931 -0.85907394 -1.7950879 0.86619925 -2.3646142 -0.6320349 0.133243 -1.3807182 -1.3374823 -1.6866503 1.6679324 0.7733415 0.048353378 0.25863567 1.4102395 -1.6633207 0.9294607 1.7151452 -0.13623497 -0.45441285 -0.3028015 2.1526856 -1.7486771 0.3577379 -0.630542 -0.27533108 -0.5807107 0.99402875 -0.07261214 -0.16464049 0.82774657 0.052882604 -0.795952 -0.658732 1.0279905 -0.8438935 0.73304147 0.6999125 -2.007095 0.06885827 1.2263958 -1.5849189 -0.9615865 1.6792225 0.417874 0.29406136 -0.25875944 -3.3442714 0.86922383 0.8021588 -1.3849226 0.40159842 0.22730292 0.5066911 1.34339 -0.98517096 0.5790924 -0.19882485 -0.08636487 1.502182 -1.1926872 0.7385945 -0.23089515 1.5328875 1.1910998 0.7159184 0.70355034
jeff 2.4661195 1.9971732 0.29234788 0.46771678 -0.30789787 -0.2506006 0.23103136 -0.36083257 2.0266685 3.487063 -1.348375 -0.33394566 0.6592463 -0.6361771 0.24267706 0.32378694 0.5175379 0.43903866 2.0958626 1.1888258 0.005676575 -1.4631282 -0.31241044 1.0766773 2.416116 1.6347892 0.109640606 2.3518667 -1.2506388 -0.3444094 -0.3139501 -0.9029377 -0.40013534 -0.8034026 -0.62494546 -0.15746716 1.4268682 -0.9997808 -0.49342155 -0.888044 -1.1398427 0.38767582 1.3615036 -1.3669984 -0.53984404 1.6423213 0.22781563 -0.7008494 -1.9731148 -0.9193194 -0.7801858 1.1102569 -1.3738903 0.42107195 -0.009918848 0.4380742 -0.81079364 -0.45019457 -0.5696451 0.21447995 -0.68537134 -0.89523023 1.2173218 -0.41682562 -0.2928926 1.2743505 -0.710882 -1.6188748 1.357706 -2.450017 0.4710708 1.0106578 0.18661092 -0.7213821 -1.4996581 0.46459264 0.75702 1.3439407 -0.07455438 -0.25372934 0.23270218 1.7637701 -0.59275085 1.3455558 -0.93568414 -0.16499163 0.6997118 1.0210676 0.34304592 0.29118717 -0.4503174 -1.4665473 -0.3387222 -0.05309058 -0.36478192 0.99467784 -0.50384605 1.7726008 0.62281096 0.87580913
every -0.55785716 -0.4083179 1.7604811 -0.03509733 -0.20022015 0.8778871 0.5278664 0.7859653 -0.1150237 0.01832012 -0.79099065 0.17392398 0.061591998 -0.48183504 0.100403816 -0.653229 0.6037454 0.519598 0.34898618 -1.6021358 0.5967865 -1.0879238 -1.3921243 -0.2588573 -1.997167 0.21747623 -0.70682675 -0.67125016 0.1750866 0.28415135 -1.4979739 -0.33675963 0.16693218 0.65137714 -0.03438697 -0.7765721 0.8435017 -0.025058687 -0.2646716 -0.52868813 0.30300504 -0.8023323 -0.2379133 -0.08471329 0.10176257 -0.016924651 -0.0099438885 -0.50921714 1.3023362 -0.5299598 -0.035840973 1.0212646 0.4658412 0.3859939 -0.5159034 -0.22309022 -0.57103425 0.33635554 -0.06302211 -0.0104398215 0.87473387 0.19478217 -0.8651059 -0.17985354 0.8498591 -0.17893974 2.1829648 -0.5603545 -0.4226546 0.5156845 -1.7110006 0.39429423 -0.22216824 -0.37374604 -0.47538728 -1.0820185 -0.94786054 -0.6800649 1.0407491 -1.0164326 -1.085627 -1.1682322 0.86671585 0.2660256 -0.16469641 0.40680453 -0.9885666 0.034668084 0.58069354 -0.2384867 -0.93242115 -1.1972363 -0.511857 0.0017928622 -0.009572302 0.14815618 0.45359272 0.22796625 0.17592087 0.59695685
legs 0.10376897 0.6281104 0.34490097 0.6283877 0.43391117 -1.0865932 2.1642718 0.93832856 -0.29660514 1.0881584 0.8190665 -0.48579204 -0.05074731 -1.2598894 0.45528883 -0.9189323 0.296944 0.11956862 -0.7785363 1.0259008 -0.15543641 1.5808322 0.048104256 -0.6535184 0.24613501 1.3779161 0.94093895 1.2498704 0.04536132 -0.5819665 -0.3330767 -1.3785903 -0.21392268 -0.73355806 1.2833979 0.024894798 -0.047014534 -0.2064965 0.37660694 -2.3572545 -0.18790415 -0.44615614 0.40964198 -1.0681965 -0.38749203 0.31688288 0.31096783 1.3701869 -0.2645633 0.77050966 -1.3799412 0.32368276 -0.7285932 0.50403863 0.3671545 0.47898304 -1.3556054 -0.65911525 -0.00595741 1.1556221 0.8610884 0.98105663 -0.22514321 1.1752197 -0.51980317 -0.06519625 0.099264905 0.31851044 -1.9718041 0.18854254 -0.1936228 -0.29127148 -0.007978173 -0.25498506 0.39942318 0.22540165 0.2721425 1.0285151 -1.0080459 0.2404932 0.64952976 -0.5696886 -0.001061601 0.398087 0.19542995 0.89463997 -0.5538918 0.5012547 -0.3933065 -0.65398175 0.016539969 0.21099338 -0.09644365 -0.038856328 0.35754097 -0.28322208 0.53958374 0.869948 0.015568182 0.29081407
smoothy 0.8624796 0.118790686 -0.2586891 -1.8036077 1.6772952 1.1786109 -1.0651926 -0.19353282 0.18439345 -0.0158213 -0.36515808 0.1726757 0.57299393 0.3108216 0.015055295 -1.0685813 0.9953511 1.0437695 -1.1550825 0.6537211 0.50137144 -0.3174905 1.1706398 1.1847637 -1.4195585 -0.043289006 -2.261554 0.411889 0.8434742 0.8629845 -1.7298448 -0.17050311 0.35229728 1.5077864 0.4590846 1.4877512 -0.6377058 -1.3275356 -1.6944263 0.017802104 0.30590564 -1.1638908 0.77573866 1.010036 0.932361 0.48678064 -0.5778029 0.6852195 0.14489187 -0.4594063 -1.0728078 -0.39095315 0.008057808 -0.6706971 -0.01325502 -2.5801454 -0.0029637688 1.0799874 -0.24452418 1.5601712 -0.1657234 0.65752465 -0.36459228 -2.4308376 -0.76024467 1.0933307 -0.3758567 -0.9248356 -0.29602048 0.5426769 -2.078482 -1.5060881 -0.76737964 -0.2973633 -0.5166714 1.4822733 0.09399975 -0.635271 0.42301297 0.57998645 -0.41198513 1.9472193 -0.064994715 -0.35858837 -1.5776051 -1.2134827 1.0583967 0.5170452 -1.213572 -1.3921613 0.08037943 0.47000858 0.20396261 -0.056010276 0.3341325 -2.1642196 0.16558175 -1.3989719 1.7273184 0.82774097
jammed 0.18850642 -0.21127401 0.5262184 -0.31980082 0.10054316 -1.3279535 -0.69843984 1.8580774 0.18308344 0.46406147 0.6042615 1.9451741 0.39062282 0.37245226 -1.0559285 -1.1587679 0.025630508 -0.0061153956 1.1847492 -0.07082208 -0.04196069 0.009491586 0.7169794 0.30626848 1.443876 0.70096827 -0.29172248 -0.41284892 -0.08539534 -1.5910432 0.26227045 -2.0703177 2.167808 -0.054638203 -0.4710248 1.7613262 1.711437 -1.6348797 0.47054055 -0.4568419 -0.6594457 -1.005481 0.647023 0.53020513 0.63434535 0.56695193 -0.13343473 -0.58248985 0.21409635 -0.7616867 0.8876694 -0.40864143 0.46390685 2.4453387 0.21396343 0.87074405 0.16083324 -0.53073907 -1.3030567 -1.496872 0.31616253 -0.579392 1.1632797 -0.58917916 -1.4305977 -0.88821536 0.75625366 0.068522185 1.7423339 -1.876954 -0.033640765 -1.3383441 0.64966875 -0.072352305 -0.037666492 -0.6535707 0.7318744 -0.047654077 0.15845186 -1.1808515 1.3612132 -0.024187254 -0.6692985 -0.6779672 -0.07136147 -1.3126758 0.5028454 -0.40680584 -0.48671347 0.52629745 -1.2173694 0.69907767 -0.76617926 0.03177869 0.6611636 -1.5690887 -0.89097375 0.26977995 -2.8536227 -1.5628983
tat -0.42328748 0.6314348 0.0014494938 0.90744317 1.0834217 0.2436171 -2.3165784 -0.20434855 1.3926255 -0.15177038 1.029717 -0.39183483 -0.055527717 -0.72018933 -0.2177128 -0.22492573 0.343455 0.5566983 0.78390586 -1.1374454 0.45803106 0.27081263 0.4294595 1.5107995 0.25078887 1.093773 -0.41530016 0.52623034 -2.052578 1.2182194 0.8998908 0.43730512 -0.5135319 0.9777029 -1.0151141 1.0695941 -0.018609751 -2.6253543 -0.7479655 0.42538312 -1.2450176 -1.2330198 1.701429 -2.7795033 2.5585585 -1.3021604 -2.584907 -0.6093043 -0.23595777 -1.0854995 0.8713398 -1.6945231 -1.0023392 -0.6356394 -0.49391916 0.6803191 -1.4434416 1.3725184 -0.92405 0.81612664 -0.97377074 0.36752668 -1.9366575 -0.28679356 0.51228213 -0.95765346 1.0556527 -1.7788389 -0.66750646 -0.7494873 -0.54167116 0.056010615 2.9983351 -0.8576182 0.71655726 -0.30267832 1.602513 0.41517887 0.2529798 1.5679404 1.0153599 -1.534619 0.50552785 0.40840498 1.4601226 0.14467648 0.21833362 -0.21816888 -0.8898105 1.0012388 1.2380646 -0.08017972 -0.9596513 -2.0063117 0.016340548 -0.9691363 1.2832973 -1.9356191 0.084803976 -1.9561511
doom -0.41174486 -0.47911474 -0.8302816 -0.043882698 -0.08669049 -0.28641135 -1.3386633 1.1208463 -0.27947605 -1.1896026 0.8589585 0.9804492 -0.9875602 -1.3447812 -0.22887388 0.01416003 -0.73865277 1.3876377 -0.16189364 0.3862392 -0.52300566 -0.060892276 -0.56990534 0.6493729 -0.21835421 2.2724702 -1.3521575 -0.69804084 1.4004732 -1.3658144 -0.41423455 0.2809747 0.97454786 0.040607892 0.39175105 0.99842376 0.6056953 -0.77053297 -0.6479688 2.4942164 0.16930644 0.57857996 0.10594069 0.2461871 0.48514062 -0.31125388 -0.5220463 -0.016607396 -0.9438323 -1.2136871 1.28132 1.5748188 0.45582756 -0.66103303 -0.020058347 0.28609905 -1.9770852 -1.3674737 0.5182207 1.5464537 0.17891023 -0.62430376 -1.7640771 0.36981878 -0.30427945 -0.8174054 1.3519497 0.17980242 0.8851763 -0.77346647 0.010246578 -2.7610946 -0.4920764 -1.0320237 -0.02006426 0.3020531 0.6242062 -0.7929112 0.41192654 0.48392463 -0.8624583 0.5523251 -0.36984795 2.4196784 0.7897784 0.66651803 0.58186316 0.19194123 -1.0882993 0.75526094 -1.0135194 -0.33295956 -0.46822235 -0.019153016 0.42667505 1.4178429 -0.63885796 1.4620246 1.0301765 -0.77951276
amber 0.6194492 1.2164365 0.6362545 0.66010094 -1.9695647 -0.02459302 -0.19724427 -1.8961006 -0.8788404 1.4412258 0.049458593 0.19434929 -0.31769508 -0.3007522 0.20412318 -0.35563704 0.15921326 -0.10084946 -1.1001745 -0.7044488 0.97589207 1.1174331 -0.8110476 1.4528505 1.016468 -2.1099396 1.473543 -0.9924857 0.76728785 -0.9694286 -0.06871113 0.29167262 0.63943064 0.006058965 3.146891 -0.7910549 0.2716115 -0.019168967 0.5225261 0.5595892 -1.0833197 0.9653514 -0.96588874 0.2543451 -3.051882 0.51695424 -0.6072423 0.13580526 -0.41981122 -0.32058743 0.8995727 -0.63777345 1.2386651 0.13895328 -0.6081264 -0.43566155 0.4951295 1.0282215 -1.479001 -0.9275862 0.89230204 0.3158863 -0.90246755 -0.4310824 0.2787243 0.2864862 0.14768997 0.87669146 -1.9251145 -0.9158085 -0.92515355 0.6424606 0.23994851 -0.91740096 0.560404 -0.90654737 -0.7226533 -1.0633557 -1.0896413 -0.0687345 -0.47341263 0.504864 1.7385246 0.14643978 -0.16769655 1.895768 0.21884859 -1.3504735 -1.9926695 1.4059697 0.68402725 -0.6581913 0.85250473 1.142181 -0.6554035 0.50784516 0.5607212 0.54528403 -1.4307812 -0.24389134
less -0.38353667 0.7669263 0.5674523 -0.22192709 -0.54815173 1.7437617 -0.5054082 0.22355133 -1.121846 2.8528688 -0.39514452 0.5801602 -0.2747828 -0.22589092 0.50579655 -0.07160058 0.9036839 -0.22290763 1.074047 -1.0095248 0.58970475 -0.4241763 1.2544521 0.27876553 0.92559075 -1.261508 0.15541498 1.0824851 -1.2760285 0.8176243 1.1348056 0.34394085 0.427285 1.6076643 -1.4760649 0.71263456 0.15236323 -0.17319526 0.76232654 -0.6497267 1.1509796 0.5324118 -2.36834 0.89417905 1.0592159 -0.48579267 0.23552085 -1.172382 1.6463257 0.8629947 -0.31883192 -0.40725502 -0.55115664 0.74016243 1.0385461 -0.09352878 0.77087015 0.8549188 2.0320544 -0.236032 -0.6850801 0.41721243 0.23384985 0.1310319 1.7367227 -0.16098334 0.24654815 -0.46444398 0.22943227 2.9464872 -0.9435664 1.002119 -0.8360921 -0.6288403 -0.83868355 0.049809527 1.1716373 -0.68638957 -0.47842762 0.87129766 -1.0829977 -0.008056037 0.014170717 -0.09936869 -0.14221059 0.8361122 0.6212225 -0.03564591 -0.29359466 -0.26324502 2.2909238 1.9570336 0.5202439 0.90974545 -0.5560487 0.58244425 -0.1200158 -0.28166512 1.6000073 -0.7427809
covered -1.1027415 0.77511466 0.5276478 0.5071729 0.49630925 -0.08193786 0.93932647 1.2097901 -1.1158662 1.510717 -0.51927733 1.3255906 0.95223045 2.3096359 -0.28405714 -1.8916695 -0.5568303 0.03816549 -0.08392451 -2.1567063 0.7510389 0.12863977 0.37441397 -0.72889185 -0.27612495 -0.26144278 0.027504647 1.3238848 -1.315991 0.50289595 1.4496102 -0.25585717 0.8593104 1.3078487 0.22895981 0.21316732 1.6167929 1.5286341 -1.8374398 0.76375616 -0.028632816 0.64094466 -1.2535388 0.925591 0.7411307 1.0182796 -1.3883127 -2.2537827 0.45138764 0.8710666 0.15408581 -0.62352824 1.4988804 -0.13660935 1.4666986 -0.71775603 -0.3487463 -0.94132096 0.014578215 1.2934955 -1.6762117 0.19214433 0.85151803 -0.29837003 0.511836 0.7272843 -0.92625463 -0.48039934 2.8280606 -0.52106416 0.28421545 -0.08519532 -0.9206645 0.93127745 2.0538416 -1.9759378 0.4955796 -1.4915553 1.0312626 -0.7402104 0.030246517 0.13929759 -0.60991484 -0.12621666 -0.12380102 0.7886742 1.0454189 0.07790951 -1.6252834 -1.7083104 0.77578413 0.33353364 1.1297724 -0.6301694 1.2344021 0.68623775 -0.40180907 -0.9102015 0.4564933 -0.042730372
reaching 0.26819515 -0.49296045 0.88312227 -0.5903001 0.496411 1.8778453 0.78630924 0.4642632 -0.4821791 1.3721479 1.5193776 -1.9834238 -0.25681403 -0.5377598 -0.42755038 0.282534 -0.7374991 -0.6063419 -1.6016197 0.4561079 -0.74475825 0.316605 -0.54914737 -1.8627892 -2.0967555 -0.8782313 -1.1218865 -0.56628215 -0.56688356 -1.4599336 -0.26447994 -0.30629086 1.1736672 -0.03398379 -1.73462 0.04627657 -0.75064987 1.0058463 0.17178717 -0.6502198 1.0205815 -0.07869575 -0.17008054 -0.3474362 0.6692706 -0.72482467 1.6233652 -1.1175411 0.1618691 -1.3680499 0.99632055 1.166172 -0.9836903 -0.08437909 -1.0616262 -1.6991504 -1.5719986 -0.008332726 -0.5735998 0.19700758 1.1373639 0.45263863 0.5158714 -0.6351428 -0.13950801 1.9402229 -0.20657635 2.3915215 -0.11919352 -0.47372127 1.4513491 -1.6270729 1.2234524 0.6866745 0.00680869 -0.5203335 0.31678563 0.6397931 -1.2373384 0.5228838 -1.9458314 -2.6136565 0.24524447 1.6959232 0.030090025 0.8850965 -0.78381926 -1.205857 -1.082273 0.7366087 -0.21702784 1.2684782 -0.08152616 -0.42011347 -0.71740943 -0.41127002 0.6092233 0.07601121 -0.13127296 1.6591955
within 0.8635789 0.08242615 -0.46761492 -0.12733851 1.2877709 -0.16831799 0.9620913 0.47799382 -2.2922957 0.37774962 2.2423303 -0.05416508 2.1660042 -1.3226631 0.32480013 2.1133826 0.76105416 -0.07007042 -0.6450854 -0.06363052 0.40178093 -0.22734332 0.13891914 0.65714383 -1.5980756 1.0400416 0.3659264 1.3558383 1.776867 1.8174537 0.46723443 0.7914406 -0.8150883 -0.37932152 -0.38374683 -0.053602055 -0.7832319 -0.96595013 0.5971528 0.11415537 -0.7969681 -0.5366951 1.4084386 -1.573079 -1.4739816 -0.7299872 0.08539122 0.4728396 0.3018481 -0.2642832 -1.2479858 0.03702935 -0.29023045 1.325901 -2.6409042 -0.009251637 -0.28123364 -0.19324592 -0.9276249 -1.0610013 2.11502 0.08847821 0.95260996 -1.9461243 0.44257152 0.2190991 -1.7370528 -0.23425631 1.0565034 -1.1049778 -1.4096111 -1.7159979 1.0124204 -0.90710485 0.20060734 0.22208686 -0.12875873 -0.04908121 -1.2124655 -0.59454054 -0.5943188 0.18708034 0.5778952 1.8881689 1.2688985 0.6757297 0.4177439 -0.4055434 -1.2460556 -1.0784824 -0.2887444 -0.5461159 -0.109523065 -1.5056907 1.4165459 -1.3228669 0.9395424 0.2608146 1.564122 -0.43552485
defeated 1.2248865 1.801274 0.02531306 -1.0416545 -0.21705249 -0.773195 0.92715853 -1.0740331 1.2788237 0.23905694 1.0075275 1.7022444 -1.353408 1.50413 0.6694598 -1.4483998 -0.6174806 -1.1469741 -0.74471325 -0.88680226 1.3230556 0.5174211 -0.33267054 1.6552159 -0.41704535 -0.15253907 -0.9598695 -0.6946512 1.8341348 0.79532987 -0.7460834 -1.4255377 0.38588756 0.46760392 -1.0693582 0.45440108 0.42938063 -2.0624058 0.6553619 -1.9483262 -0.3268395 -0.85345346 -1.0793526 0.09775242 -0.9108039 -0.8556079 -0.8442245 0.7275178 0.84767264 1.769724 -1.2489184 -0.506713 2.1637158 -0.43790907 0.63988227 0.4088556 0.4327254 -0.4469676 -1.9695963 0.7764881 -0.604351 0.4032977 -0.13787612 -1.5445951 -0.9273009 -0.47872823 0.67187583 0.87664765 -2.1295388 0.45939422 -0.7147197 0.09680544 -0.18602291 -0.16485234 0.6141963 0.04541313 1.5468568 1.2107021 -0.10994086 1.0609657 -0.112989046 -0.9116725 -0.06982196 -1.1255994 -0.13245197 0.83370197 -1.3333864 0.8506483 -0.5516661 0.1668699 -1.6585097 -0.7203474 0.92154706 0.7427027 1.0679355 2.0332797 0.34156272 -0.14098296 -0.57889044 -1.093445
went 0.4547744 0.15182173 -0.9285653 0.034691926 -0.5164585 -0.72911614 0.71197546 0.587722 0.16539586 0.30219215 0.44212672 0.16366625 0.32238165 0.7244342 0.5434378 -0.5749736 0.45797333 0.4841461 0.5873884 -0.915929 -0.78385264 -0.82469267 -0.5868134 -1.3091702 0.01258358 0.05421648 -0.1388367 -0.7286193 0.43138242 0.3158531 0.6651724 -0.039387606 -0.22766344 -1.7745702 -0.111349724 -1.6404505 0.29490796 -0.59769255 -0.03528622 -0.18593222 1.0674846 0.0021897 0.04703551 -0.3310653 -0.39839783 -1.355563 -0.9238389 -0.5928306 0.6268746 0.22180143 -0.29464617 -0.32336202 -0.6672825 0.15130736 0.08135502 1.7475413 -0.9043886 1.1433342 0.7016496 -0.6472149 -0.5016973 -0.30463338 1.1774402 -0.24497825 -0.7513934 -0.7863432 1.1061296 0.6055954 -0.03371446 0.13943318 0.2626765 -0.42288354 -0.9114415 -0.42260003 -0.9711021 -1.070243 -0.072065726 -0.10296022 -1.2152634 -0.22158131 0.118568644 -0.82390326 -0.536755 -0.5041619 0.5920101 1.2451599 -0.44234335 -0.26737282 0.80011004 1.6181518 0.46931246 -0.115657955 -1.3748405 -0.26571742 0.023165476 -0.42527238 -0.12974884 0.15764514 0.07279883 1.4628319
objection -0.4893942 -0.6343897 -0.5008413 1.0396783 0.86256367 0.6886301 0.010412667 0.49990657 -0.6426605 1.2606928 -2.0901833 -0.046627555 -2.3304071 1.596896 -0.122754425 0.16432247 -1.2340134 -0.56383514 0.18404987 -1.4348521 0.37450132 -1.1186072 -1.162295 -1.1943468 0.24099228 1.4766655 0.15926132 1.2476916 -1.0353391 -0.02656245 0.5762052 1.9113739 1.122588 -0.14614485 1.543894 -0.2670677 -0.9401398 0.42164978 1.2581306 0.082764894 -0.21292886 0.73063594 0.45564663 1.1537255 0.76940286 -0.20259771 -1.7555907 0.067802206 0.3748176 -0.15760882 -0.38185364 0.98734134 1.1270039 0.03534871 0.23495755 -1.6635051 0.45608506 -0.44845876 -1.3828667 -1.2303818 -2.1046898 1.9886792 0.37512806 0.9475097 1.8334556 0.17413148 -0.7934674 -0.67296416 0.061670065 -1.6707505 -0.9021349 1.8063548 -0.5937431 0.4265276 -1.0047807 0.7848819 -0.9233561 -0.24574582 -0.36339164 -0.6126444 -0.16350688 0.9894472 -0.7468925 -0.5456424 -2.0069246 1.2121543 -1.7410629 0.9035834 0.40663812 -0.46254042 -2.5917878 0.0462954 -0.08090935 0.030357067 -0.80159605 0.4541666 1.9662654 0.0030717838 -0.61926305 1.4706836
employees 0.28702807 -0.57290876 -0.30059347 -0.8493894 0.26109612 0.41338086 1.4194663 0.07656685 -1.012297 -0.67312765 0.47603282 0.07631549 1.0418783 1.0315611 2.0962162 0.8472471 1.3411363 -0.5929705 -0.060880963 -0.96557915 -1.2497189 0.9172036 -0.1308089 0.3032767 0.42554644 -0.0077201584 0.26294795 1.7078922 -1.5931835 -0.80421567 -1.5590647 -1.6712788 0.8448365 0.6971392 -1.9023092 0.56583476 1.171483 -1.1681677 -0.01674563 -0.08169087 0.011872818 -0.088338 0.47959387 -0.7582739 -0.70943576 -1.5241474 -1.0057125 -0.36990315 -0.54813534 0.356229 -0.90234035 -0.78210586 -1.7370398 1.0181326 1.465729 -0.8724227 -0.9708278 -2.0409288 0.7841842 0.07123211 -2.3950562 -0.36152208 0.6287914 0.116662554 0.96748054 -0.7432569 -0.47592068 0.365271 1.060031 0.5268765 -0.24528097 -1.4214458 1.1906202 -1.8789028 -0.20385894 0.33955464 0.6651456 -1.6644357 -1.0161095 1.528985 0.3470664 2.218328 0.050324343 1.0622325 -0.98733705 0.3999912 1.059366 0.31065395 0.32524106 1.176951 0.6904977 -0.73489493 -1.1776603 0.65866566 -0.04214984 -1.1381127 -0.71778554 1.0170143 -0.7407021 1.0457354
body 0.57252944 -0.9063329 0.16433853 -0.6163496 1.3000724 0.6329406 -0.890453 0.7929754 -0.4907585 -0.75874937 -0.71589607 0.7605909 0.851686 1.0970829 -0.28174165 1.3167913 -0.43214256 -0.5203188 -0.3819482 -2.10843 0.3764091 0.39698586 -0.13694513 0.51727086 0.46943128 0.7779723 0.80172443 0.38675117 -0.9583335 -0.73866296 -0.8570784 -0.028167771 2.481345 -0.4662921 -0.6836716 -0.13391522 -0.53827405 -0.12067538 -0.5317897 -1.1346779 0.4369488 -0.52129304 -0.63849837 -0.06089383 -0.088821016 0.88430375 0.5693578 0.29391056 -0.13200355 1.0254122 0.10164493 -0.34648165 1.049932 -1.5943787 -0.7190322 -1.2695677 -0.6877925 -0.18493871 -0.21300457 0.035562117 0.9000136 0.12951638 0.6331917 -0.3727585 0.18569586 0.9454509 0.43011117 0.9959998 -0.07300099 -0.7905692 0.4099748 -0.5159246 0.13247384 -0.91064894 0.71429855 0.23069511 0.7610655 0.34441662 -1.5500559 -0.5069343 0.026215486 0.77390873 -0.5074281 -0.56792295 0.82547385 -0.49156255 -1.3006656 -0.54981774 -1.7186341 -0.7656336 1.6921853 0.5750194 0.5702554 0.4027674 -1.4615501 1.4711422 -0.028690541 -0.93675864 -0.21165077 -1.0182122
education 1.2739022 1.7407609 0.19415323 0.68396634 -0.23787394 -0.35425556 -0.14286035 1.2890533 -0.28859955 -0.9250202 1.2687199 0.21714102 0.5672146 0.80208045 0.475022 1.3481096 -1.3874542 -0.86944175 0.43858606 -0.0569372 -0.7673404 -1.0492595 0.051369857 0.4570451 -2.1667714 0.029620936 -0.8690111 0.48160142 -0.6083361 -2.368589 -0.13484001 0.9402159 0.14088084 -0.3807286 2.3003323 1.3604983 2.251034 1.3049629 0.16764 -0.14712791 0.007913802 -2.777269 0.23402686 -0.83085066 0.63442284 -0.30900577 -0.09058711 -1.8214194 -1.1384429 -0.42006323 0.849448 0.03666865 -1.7916219 0.02958005 -2.366275 -0.5671036 -0.16357139 -0.34625778 1.0783005 0.11169812 -0.7970762 1.0057224 -0.9853838 -0.7781922 1.8415552 -0.9377899 0.8260326 -0.2795431 0.48307434 -1.4469224 -1.1874378 -0.9497983 0.21906301 -1.0141052 0.92072606 -0.16468316 -0.5854495 1.3735 0.37185302 1.1264393 -0.3091737 1.8835671 0.9665509 0.88111454 -1.2469106 -1.2761896 -1.1935266 0.3063845 -0.21952249 0.05269588 0.8954258 -1.1490334 -0.4948569 1.3679516 0.06294309 0.1465201 0.021659862 0.1511263 -0.54108906 -1.2019494
ages -1.196681 0.26996005 0.71509176 -1.2068776 1.0485905 -0.9015134 1.1587162 0.46188882 0.14934197 1.232538 -1.9885958 -0.022049619 -0.5482956 -0.15983398 1.3492231 1.8747963 0.5893041 -0.183498 -0.91873425 -0.9308677 -0.5219539 1.4048553 -0.5887723 -0.21456091 0.19188339 0.29405728 1.5243131 -0.31152192 0.9948659 0.007869273 -0.4966467 0.36680466 1.3488452 -2.2927523 -0.5802343 -2.6969469 -0.8826792 0.639147 -0.6891193 0.7018858 0.18829873 -1.1541824 -1.0774359 0.75418884 1.1330786 -0.121970475 1.1952021 2.1299152 -2.0928135 -1.243386 -0.048674937 0.7805349 -0.95675194 -1.7812887 -2.3036442 -0.43797493 0.3750135 -0.57876885 0.06615623 -1.7333577 0.37890908 1.454562 -0.33682606 -0.14937688 0.44711116 0.86362183 -0.47285858 1.241072 1.629617 -0.26366895 -1.4367253 -0.19279404 0.79026663 -0.25144446 -0.36469078 -1.4229279 -0.50814885 -0.4009255 0.52730614 0.26290447 0.087276466 0.27678216 -0.55889916 -1.4669917 -0.3679639 0.3771434 0.33952978 0.13168974 -0.97833455 0.29538494 1.6444713 0.4871758 0.4177803 1.0552009 0.76980263 0.40485072 0.06739285 1.5540723 -1.2088656 -1.2717305
photographer -0.13056603 0.61312014 -0.7839075 1.7424089 -0.49130276 -0.6587189 0.76001596 1.6006536 -0.6040355 -0.6393401 0.8104817 0.29568985 -0.7491403 0.14234276 1.1464674 0.5316417 0.75522745 0.30943483 -0.32865843 0.10377868 0.4325268 -0.16771898 0.94907606 -0.49228698 1.0570598 0.6780986 0.2337016 -2.0137243 -0.6293173 -0.36372873 1.2808323 -0.29665393 0.75646824 -0.6285047 -0.8956051 -1.2944131 0.48830685 -1.2525532 0.81900144 -1.3330513 0.34056956 0.019226227 0.81056476 1.3924108 -0.23690815 1.1979021 0.0678935 -0.39112863 0.09410389 0.65129703 0.31509823 1.9453211 0.60388035 -1.2557192 0.38644806 1.489797 0.6749234 0.5868827 -0.71283996 0.72599846 -1.5302234 1.0923235 0.6949865 -0.113707095 1.2499678 1.8813597 -1.7578188 -0.4575575 -0.21536204 -0.57003576 0.27416286 -0.2564828 0.34211746 -1.07755 -0.43632698 0.87053037 -1.4594269 1.6179394 0.14924102 -1.6268009 -0.7298527 -0.14805645 -0.33276254 -0.62595236 1.4767447 0.49870765 0.95846254 -1.2380337 -0.7532883 0.17183252 0.7752631 -0.060775872 0.021818412 1.2172666 -0.96127474 -0.9206806 0.1570527 -0.38907614 -0.61687607 -1.4411559
stress -0.40154615 0.60481495 -0.42170447 0.40501508 0.030441621 -0.28484038 -0.13541195 0.9171277 -0.019054456 -1.8106164 -2.3187764 -2.250969 -0.40714163 0.02769262 -0.62544835 -0.55320364 1.5094526 -2.0479786 -0.28156894 0.62531775 1.3331027 1.3452971 1.0049075 0.9270745 2.2985423 -1.3962234 -1.7780383 -0.040497653 0.55610317 -0.89529926 0.9923078 1.3150102 1.5719405 1.3894923 0.06489581 -0.94545704 0.0017173227 -1.6745058 0.19338596 1.5199417 0.8953663 0.19688962 -0.7607785 -0.3958442 -0.426197 -0.12099393 -1.6005996 0.48542732 0.861827 -0.46024317 0.30220726 -0.13189714 -0.18284377 -1.5175123 -0.49778974 -0.4108165 -0.46693337 -1.0147847 0.002567055 1.6381454 -1.0615267 -0.7669293 -0.5969372 1.8104534 0.29876533 -2.3413448 -0.86491126 0.317047 0.35250235 -1.860674 1.3147053 -0.81366557 0.014210009 -0.73819655 0.47004515 -0.2927213 0.30658606 -0.4368402 0.22770287 0.7461519 -0.3519 0.6046669 0.39457783 -0.6443314 -0.23743936 -0.25563797 -0.27599746 0.14268635 0.42076147 -2.238243 1.6735178 0.71453017 0.51960176 -0.15497643 1.2100099 1.1569644 0.82494956 0.8070288 -0.2162322 -0.37754917
turbulence 0.7711764 0.38027504 1.7376106 -1.1303716 -0.33234575 0.36570242 0.13808826 0.46039912 0.5540317 0.83870727 -0.38751584 -1.9336817 1.3305483 -0.4826926 0.81746095 -1.6820909 0.32966614 -1.8030589 -0.6419517 0.40596205 -1.8948919 2.1873264 -0.5907411 0.29893407 -2.5965931 1.0056633 0.85357344 1.546458 -0.4476126 0.031951588 0.65468276 -0.7317567 0.6430989 -2.0843995 -1.425696 -0.12958741 2.4497755 0.6319193 2.113176 1.0766888 0.25851896 0.014589183 0.27932805 -0.60399365 -0.40782464 -1.2893463 -0.89708775 -0.20608269 0.13197412 2.2901912 -0.0500505 -0.9866371 0.3535834 -0.3249005 0.72406846 0.39532366 0.7114704 1.3418615 0.9384022 0.18382452 -0.14265107 0.5308545 0.78298783 0.044750236 0.8215737 -0.34714714 -1.285968 -1.063478 1.5061984 -2.66096 0.6343765 0.047417223 0.56885386 0.9876003 -0.5952413 1.1658503 -0.0206004 0.64124906 -1.271688 2.3369071 -2.6927247 0.114714995 -0.49182546 -1.6792315 0.27497578 0.43704307 0.16858913 -0.81512666 -0.49491522 1.8356833 1.6027832 1.5791283 0.8494695 -1.6725984 -1.2370734 1.1192428 1.357162 0.7046895 0.11714565 -0.615945
cardio 0.36725682 0.58784693 1.2585795 -0.5806773 -1.5153317 1.3820491 0.35775447 0.6121075 0.08425553 1.7856448 0.82684004 1.8138471 -0.8054474 1.4028856 0.98476547 1.0063878 2.632575 0.96939117 0.8732818 0.9049724 0.12067548 1.3075378 1.2694583 -0.79809797 0.1449068 -0.5774599 -0.0195012 -2.5511353 1.5055933 -0.84168625 -1.8617698 0.78074336 -0.81275773 0.63725746 2.415454 0.4980197 0.14046039 1.6692742 0.4580461 0.2647399 0.91718054 1.0346286 -0.4347051 0.646498 -1.431174 -0.6273999 -0.04901968 1.9891412 1.2602193 -2.1408224 -1.2320335 -1.219001 1.0802286 1.4763557 -0.63487566 -1.1853536 0.68324184 -0.3846665 0.07994637 0.6859491 -0.4044027 0.8731765 1.6268959 -0.75874126 0.5434797 0.5569022 -0.4159956 -0.4091092 0.33232528 -0.84305567 1.8013675 -0.8160807 -1.9095346 -0.30738658 -1.6640322 1.7445325 0.5371315 0.74665177 1.025379 1.3784411 0.87923396 0.990395 -0.6292378 2.4232643 1.0297222 0.905297 -0.5491051 0.39418307 0.57639337 -0.8213234 1.0259428 0.96010035 0.62999815 -1.342465 1.1317492 -0.4410658 1.2534142 -1.691991 -0.66142774 -1.1768913
worked -0.641337 -1.511477 0.05516355 -0.8630603 0.26709574 -0.562039 -1.3963311 0.54768056 -0.52662164 -0.48040894 0.4315057 -0.2096694 -1.8759844 0.72548586 0.1958262 0.63593006 0.8113049 1.0333898 1.0613543 -0.20854022 1.1905538 0.20580293 1.6065584 0.12772833 0.5578855 1.5444582 -0.32498822 -1.0198629 0.0067608575 1.1705225 -0.015091436 -0.8604784 0.53006715 -0.04239565 -0.76851207 1.2430183 0.75204146 0.14647222 -0.41583705 0.4502899 -0.3507537 -0.40235958 -0.0125304535 -0.83435184 -0.93612576 1.3199669 -0.66859615 -1.5952531 -1.5217999 -1.663428 1.5003079 -0.1864176 -0.9446435 0.19158207 1.2990898 -0.6754793 1.1861387 -0.5585082 0.4655437 -1.5382432 -0.23132573 -0.4712993 -3.158541 1.4022725 1.3455524 -0.24416995 1.0813864 0.3020534 -0.8226807 -1.4473535 -0.9729413 -0.18909015 -1.5285696 0.3753373 -0.8216357 -0.8673335 0.45121738 0.44084582 -1.5702012 0.71895903 -1.8722011 0.26772192 -1.8688626 -0.3648674 1.0893403 -0.14406797 -1.3776044 0.45028526 0.30618593 0.43509153 -0.3575773 -0.48725235 -0.56190753 0.008334057 0.19163382 -0.25590834 -1.3929635 0.15873878 -0.8528808 -0.46758795
ends 0.64995974 -1.105888 1.4307113 0.18166691 0.21538422 0.048045617 -0.6438356 1.6476455 -0.22983314 0.7751514 -1.2586719 -0.28631952 0.09408391 -0.6034798 0.2785349 0.99168545 0.73258394 -0.37994248 0.5402978 -0.85836905 -1.4271579 2.3120568 -0.6349242 0.91984385 0.08535769 -1.5467159 -1.1744872 -0.18766226 1.3418065 -0.026289377 -0.74050987 0.29366636 -1.0241389 0.8495056 0.26165354 0.6651615 0.009729989 0.29107252 0.03480653 0.2794295 0.04227451 -0.80393684 1.3438219 0.14317451 0.72895056 0.30822197 1.0539929 0.7050988 1.4283785 0.9078279 0.2422482 1.2002985 1.2070131 1.3492713 1.67219 -0.6314337 -0.16357107 0.22482382 0.8957891 -1.1738749 0.038748886 0.82312727 0.3919707 2.1741307 -0.4424464 0.9214875 -0.10139546 0.90596443 1.2227058 0.021394782 0.8374516 -1.5694181 0.9129078 -1.0643842 0.5043357 -2.37112 -0.23586732 0.01093435 0.20218334 -0.53606755 -0.6717579 -1.1813585 0.18031868 1.1334842 0.5378057 -0.23539281 -1.8930731 0.8217854 -1.4298992 1.3687034 -0.5234089 -0.49427685 -0.11513203 1.0868863 -0.35786024 0.93027765 -0.778736 1.7960355 0.14598963 0.29244038
major -1.8101077 -1.4701557 -1.1891544 0.944034 1.0689666 -0.066994525 1.2340904 1.4271637 0.9579285 0.5947061 -2.2859051 -0.15391096 -0.38204035 0.5292908 -1.3286403 -0.59035444 -0.3614109 0.65804446 -1.3621196 1.1193266 -1.0840721 0.045753002 -1.743527 0.5462875 -0.33064604 1.4590414 0.94664305 -0.08954013 1.4813784 -0.79396796 -0.9170274 -0.029347721 -0.44318807 0.89984906 1.7012051 -2.481167 -1.8441781 -0.8852276 -0.5777101 -0.61814076 -1.4913253 -0.31052127 1.3596315 -0.34614053 1.4619998 1.2561319 0.65401995 0.1948733 0.59862727 1.3463204 -0.89813256 -1.1853336 0.3191782 -1.5920677 -1.8998125 -0.5105222 -0.6736597 0.39726895 -0.08006017 0.21153511 -0.5333118 1.3818226 -0.1432937 -1.1117594 0.8495871 1.2517519 1.390197 0.2835957 -0.5637185 1.0454346 -0.8538802 1.9509819 -0.31743532 0.5085605 0.37390813 2.0119853 -1.4999954 0.41302043 0.80545455 -2.8547654 -0.14462753 -0.7718373 -0.26773396 -0.4282452 -0.15700598 0.35433102 0.2950314 0.39285225 0.6721523 1.096852 1.9650338 -1.321765 0.9374799 -0.07927913 1.9357853 0.5423441 -0.7736132 1.3588413 0.58435273 -1.9823195
steep 1.2041777 -2.0000014 0.4346704 -0.009498238 -1.0712361 -3.1965826 0.15881631 0.5241465 1.4277092 -1.506872 1.1047343 -0.07253338 0.9314223 0.36441204 -0.83746177 0.9693983 0.7933719 -0.039791934 -1.3041083 1.0482599 0.3670187 1.0887568 0.7263461 -0.8559224 -1.4091867 1.4207467 0.0037618668 -0.49546614 0.28769502 -0.38224655 -1.3332331 0.20819056 -0.03260932 -0.22689463 0.026750179 -1.1028349 0.49917364 -0.14411516 -0.25418216 -1.9704831 0.45077187 -0.27606928 -0.3237242 -1.7276795 1.0509882 0.5386132 -1.0765687 -0.30698556 0.4930527 -0.43288076 0.7144316 -0.33349627 -1.1486142 -1.6845564 -0.8317715 1.0629007 -0.94247556 1.2378606 -0.8117396 1.020087 -0.20337562 -0.057767108 -0.8557531 1.0905533 0.3171545 -0.9527205 -0.5726265 1.2298087 0.74138653 0.43952057 0.70857066 -0.9058319 -1.280765 0.10337391 -0.21726014 0.29628897 -0.86479735 1.075167 0.9364625 0.24644274 -1.1463166 -0.07197684 0.032321326 0.90038574 -0.5066944 -0.76097727 -0.61968064 -0.45593658 0.46727157 1.2947333 0.3307015 -0.95262635 1.0071759 -0.3928435 0.2445241 0.2965009 0.43321356 0.4991688 0.7659984 -1.0690551
utensils 0.29624042 0.23809588 0.8583705 0.27607578 -0.59515244 -0.035515074 0.43767366 0.39790636 0.12576835 -0.73677933 0.8083851 0.0658048 -0.28289983 -0.40522182 0.83934337 0.3742966 1.4575408 0.2957688 -0.47094443 0.2873916 -1.0107293 0.6337978 1.6209595 2.319921 -0.75264025 -0.36960882 -2.7744248 -0.043921776 -1.8141643 -0.94330615 0.35436454 -2.0693676 -2.5709171 -0.18478444 -0.31241277 0.4961754 -0.8845885 -0.33697033 0.33622783 0.5723848 0.32686487 -0.36506215 0.5405726 0.68535393 0.9291317 0.4084159 1.2785656 -0.19892086 -0.7403809 -0.5440934 1.4757842 0.72961926 -1.3398491 -1.2317358 -1.7012932 -1.0951128 -0.94138277 -0.2264406 0.39719167 -1.4808306 0.55202425 1.6359122 0.0046272203 -0.44331878 -1.560633 0.8313996 -1.4844997 0.18323004 -1.0727067 0.8209824 0.62128496 0.40437752 0.70265526 0.6371741 0.5565078 0.6403566 1.3381903 0.074165925 0.95611 1.4458715 -0.2433321 -0.6493902 -2.0999906 0.5003785 -0.27306014 -0.12496348 -0.455676 0.10205074 1.1455258 -0.44123465 -3.6000817 -0.86682546 0.46834844 0.093654186 0.49922603 1.2576274 1.9954582 -0.6193056 1.508176 0.009876283
bedroom -0.0413578 -3.104843 -1.0012391 -0.6364292 0.2207245 -0.970743 1.0069914 0.31828755 -0.5495144 -1.4165605 0.5532809 0.32196382 -0.0943712 1.245175 0.73897684 -0.38391995 -0.77011794 0.36724633 0.59570086 -0.63478297 2.0070276 -1.8575315 -0.62294376 0.10691252 0.15392917 0.42615512 -0.5841226 -0.3853105 -2.1382577 0.39427194 -0.97946715 0.29585052 -0.5952818 0.31563342 2.0684927 -0.3445021 0.7276346 0.32431057 0.110059954 -0.34383914 1.1120503 1.234245 1.7803257 0.16631229 0.4595147 1.6647987 -0.67429596 -0.69603723 0.719255 0.3415912 -0.8397323 0.96932864 0.27396923 -0.83304477 0.5799903 0.09623197 0.72604316 0.37702096 -0.31509644 0.077227674 -1.1325642 -1.6125206 0.70414275 0.57218206 -1.0819771 0.05865436 1.4988824 1.0644835 -1.3850174 1.4045469 0.45007625 1.2332784 -0.8695587 0.4986122 0.44758525 0.34377894 0.8903938 -0.8158829 0.5282433 -1.0455933 -1.1855348 0.5043962 0.6040559 -1.4106313 -0.6746914 -0.405741 1.5096538 -2.1737585 0.4002568 -1.101939 0.9304904 -0.12497684 0.8170735 0.26533988 -0.344948 0.3083821 -1.0104196 0.4901544 -0.3563043 0.9757533
vapour -0.025597366 -0.24780656 -0.10060149 0.21347205 1.6388029 0.8008891 0.30942026 0.14544594 -1.6337796 0.43217024 -2.1256504 0.9056078 -1.6392882 1.9384049 1.4048154 0.6097917 1.2474799 1.3948319 -0.11961522 0.6325347 -0.66316724 1.5552355 -0.49205148 -1.7070847 0.071868144 0.29551175 -0.13159801 -1.3719174 -1.4530047 -2.0136623 1.2032504 -1.7429147 0.070177734 -0.8431027 0.4264396 -0.3409023 0.78961325 -0.77485925 -0.93787605 0.30642715 1.4664848 1.0746429 -0.29873016 -0.1578409 -2.4408107 0.47444978 -1.3945448 -0.2759455 -0.7158322 0.898013 0.18730775 1.1411393 1.4672251 -0.4142938 -0.048298493 -0.031564392 -0.67904013 -0.4278536 2.2643545 -0.24883518 0.60298795 1.8368171 0.7208726 0.96044886 -0.6729365 -0.058406085 0.14171928 0.41943708 0.7112562 -0.66608196 -0.22598654 0.1256599 -0.3926767 0.25040683 -1.1900697 -0.840194 -0.54686636 -1.4758222 -0.2265723 -0.8785531 0.6698632 -0.5480111 -2.3957639 1.1962711 -1.0153848 2.8084388 0.09728246 0.21723713 -0.29642603 0.3788423 -0.9506801 -1.8056803 0.3995373 0.95843107 0.6998026 -1.8141273 -0.7561074 -0.39519706 1.192823 -0.46089953
lightening -1.4393026 -0.050409716 -0.3987733 -0.5696439 1.4236287 0.92823917 0.9466666 -0.9146365 -0.07057865 -1.971165 0.30666277 -0.92753583 1.2849803 -0.35343215 1.0100499 0.7517454 -1.9769787 -0.59343326 2.4634 0.6060816 -1.7018265 -2.3436658 0.43346092 -0.29970086 0.67680424 0.29965994 -0.9607824 0.094192795 -0.53528696 -1.6215832 1.2120228 -0.973536 0.18854924 1.3036232 -0.09396528 -0.54261094 -0.5310899 -0.9968689 0.31601933 1.9517976 -0.4854216 -0.9363902 0.40919602 -0.526191 -0.64772874 -0.6177984 -1.2471491 2.107784 -2.6966224 0.28249437 -0.31488037 -0.25722012 1.1959053 0.5919704 -0.1501951 0.08214217 1.0264196 -0.022356953 0.5438732 0.5742028 1.3778554 1.0240017 -0.37585053 0.5537171 -1.3143065 1.4406917 -0.9019601 1.5037702 -1.3048947 0.6861859 -0.8029038 -1.3704522 0.31406218 -1.198548 -2.0279498 -1.4905465 -1.4009379 2.112543 -1.3913618 2.0194292 -0.21250287 0.8807746 -0.96076006 0.2268161 -0.6292961 0.44072473 -0.6301129 1.8064446 0.08438623 -0.65627205 0.38268024 -0.11277735 -0.7370543 -0.97265166 0.30565313 -0.3652232 0.025142446 -1.4515306 -0.41715345 0.73941165
scanned -0.6694288 -0.52588886 -0.63915974 0.005529532 -0.045707572 -0.62961274 0.42511567 -0.036571205 -0.668558 1.1594827 0.69093007 -0.045855507 -1.118787 -0.01819606 0.032904763 -0.9821925 -1.9998696 0.6078813 0.9561954 1.2547799 -0.6846623 0.4912995 0.12870693 -0.80326766 -0.81069195 0.37138978 -2.4610567 -0.890103 0.8263048 -2.163688 2.6065216 1.7283081 0.42864367 0.3718478 1.2781311 0.52638966 -0.30127916 0.28607768 -0.26550514 0.36155266 -0.23952226 -0.5576371 -0.16618781 1.5289441 -1.1755968 0.5962967 -2.1346602 -0.5832598 -0.53529316 0.40346476 0.48960504 -0.62648165 0.061533213 -0.8240222 -0.9120863 -2.6012962 -1.111963 -0.59800756 2.3313925 -0.49571306 0.008019275 -1.092241 0.19912323 -0.35740575 -0.65340847 -2.3261123 1.8693904 -0.6275104 -1.8646779 -2.218979 0.8444314 0.5566867 1.9119685 -0.8439907 0.9554571 1.7349061 1.452798 -0.31860632 -0.37632725 1.1364343 1.1015507 0.96936023 1.2131404 -2.5740633 0.04585027 1.6010356 1.532509 -0.37110284 1.1504817 1.5194571 0.35087758 0.98910934 0.7803413 -0.6365984 -2.0245204 -2.2810004 0.6034162 -0.60351735 1.2275074 -0.69377846
thread 1.4184566 0.24506982 -0.41771236 0.9988638 -1.1090957 -1.3731813 -0.47713175 0.38462946 -1.7982144 -1.5710703 0.58977157 1.763945 -0.86119395 -1.1578252 -0.73734164 0.42730984 -0.13520119 -0.6784815 -1.0886881 1.5633289 1.1085862 -1.4123533 -0.6431168 0.32590023 -1.6765056 -0.3396432 -0.09816073 -1.3288156 0.62377596 0.112885475 -1.415022 0.7687777 0.28581038 -1.9327284 0.8968028 -0.30172205 1.0094243 -0.75271827 0.8915467 0.24779943 -0.39060822 0.46568054 0.6023399 -1.6268109 0.5407993 0.79778296 -0.061936248 -0.22361185 0.07423192 -2.0490947 0.30167395 -0.06277331 0.8345484 -2.6704946 -0.49503115 -0.76427066 -1.5396887 -0.39042035 0.074447155 0.1307052 -0.7117624 0.26199654 -0.7675024 -0.91465694 0.51869226 1.774654 0.52862567 1.890084 1.5582197 0.23146024 -0.1473561 -0.8561631 -1.6170292 0.6044534 0.10111216 0.7774435 0.8972465 0.56980383 -0.2563214 -0.7245287 1.0785673 0.5729378 0.5345357 -0.06839232 1.4342225 -1.5732735 -0.74341327 -1.0983902 0.32163244 -1.1348792 0.5040969 -0.07967613 -1.1131194 -1.1659554 2.5100367 -0.6255513 -0.8413134 -0.8204512 0.76642084 0.14433251
cringe -0.9023935 0.12707895 1.2026414 0.22576833 -0.17610541 2.5327408 -0.006439614 -0.6325825 -1.632577 1.4534897 -0.84928066 0.06973762 -0.973484 0.43415874 -0.23521644 -0.66094756 -0.4157504 -0.46443337 -1.1874632 0.057251822 -0.6108593 2.0154676 0.5476486 0.71282023 0.80480415 1.3646582 -1.3432949 0.73444384 0.9197061 -0.5770312 -1.4074769 -0.51750934 -1.3913493 -0.19523852 -0.37567106 -0.27571774 -0.016098177 1.0687225 0.20439439 -2.12929 0.9960974 -0.2964103 0.3260799 -1.7565917 -1.4373112 -0.51435435 -0.67323095 -0.37257767 -0.7720856 -0.96611845 -1.0565258 -0.6145437 -1.5310682 1.5516565 0.59059155 0.1058332 0.31145316 -1.1944898 0.52166086 -0.94339997 0.72924614 -0.31940874 -0.5083856 0.10786787 -1.3777226 -0.7690736 -0.27951995 1.5041859 1.2318248 -0.5710896 -0.069093294 0.5949573 0.603345 -0.5580906 -1.7526858 -1.5471051 1.4460641 -1.6162179 0.8125038 -0.92639214 0.78505224 2.5601995 0.4385066 1.7467862 -1.5333915 -0.88722116 -0.5116941 -1.3182311 -0.22314626 -1.1867194 -1.1790142 0.11439047 -0.056205265 0.9352169 0.7646933 -0.31208095 1.6371342 -0.4055511 0.6330912 0.4573323
sunset -0.027330395 -2.4364986 -0.18128239 -0.0066828886 1.5785856 0.5561771 -1.4681004 -0.02780108 -0.24942048 1.5568469 -2.531298 -0.010941966 -0.71282387 -0.032431778 -0.104130186 0.37838018 -2.338018 -0.7977362 0.48484442 0.6065612 -0.31674114 -1.5945504 0.56738824 0.3147046 -1.3779651 1.1129146 1.4213836 -1.4308273 0.33083817 0.42628098 -1.2624817 0.24010178 -0.2793099 0.5847174 -1.4687653 -2.1100566 -1.3847237 -1.5425427 -2.1212168 -0.60828304 -0.9356031 -0.1198054 -1.6812831 0.78120184 2.071221 0.43439114 1.4547439 -0.48821884 -0.9123918 0.07489246 0.07895439 0.99947375 -0.9225968 -1.6854333 -0.7748012 -0.1777221 -0.25756684 0.7969831 -0.21030274 -0.22411743 -0.27150437 0.26293835 -0.079989 0.28500855 -1.6019427 -0.17304888 0.4601602 -0.661684 1.4876949 -0.9969957 -0.5505574 0.74953324 1.2163646 1.4082108 0.16270109 -0.16263165 0.685205 -1.4604576 0.11115318 0.88404524 -0.054056328 -2.3664784 -0.41242525 -1.105607 -0.9280481 1.7993948 0.44955856 -1.6728607 -0.55087835 0.7646736 0.49397904 -2.0475264 -2.299866 -0.8887501 -0.33699384 0.17252119 1.0323818 0.20085034 0.31644848 0.43347284
camera -0.5138838 0.30555823 -0.4131439 -0.5069251 1.3168031 -1.1481102 -0.83584625 -0.3774922 0.14821224 1.5513597 0.5071505 -0.33158985 0.24365959 0.5279243 -0.45814535 0.67578787 0.5772611 -0.6322323 0.8021843 -0.20976204 -1.0869775 -0.32335368 -1.6381687 1.0437509 -0.04039547 -0.3224841 -0.9967671 0.29992306 -0.46002153 0.5958903 -0.08589598 1.3422775 0.48922125 -0.31508732 -0.35768637 2.2131357 -2.2152135 0.33928552 -0.66005474 -0.8543701 1.236485 -0.43369153 0.44680113 -2.5659208 -0.45911935 2.4532866 -1.2402734 -0.2717944 -0.02459882 0.5260006 -1.0948138 0.83638 1.3771627 -0.8877684 -0.35823557 1.2344606 -1.0841038 -0.52558047 -0.88794607 -0.089412354 -1.7210933 0.7285417 1.4730005 -0.30742025 0.06877673 -0.8394155 0.32554284 1.6089427 1.4700288 -2.4389496 1.4992073 1.1830435 -0.8886142 0.28810942 0.57609683 -1.3807613 -0.32639813 0.8660372 0.88266057 0.77524126 -1.1625623 -0.5024627 -0.8178367 0.26537326 -0.11491367 -1.1990612 -1.3187709 0.49744356 -0.85161555 -0.50495476 1.0051227 2.3643782 -0.60372365 1.1514978 0.1896064 0.5811993 0.1436364 0.51971334 0.17232355 0.5682471
pressure -0.31767538 -1.4034219 -0.3156734 -0.70535547 -0.15912217 -0.711214 0.58681214 -1.3205305 0.14091113 -1.4205052 0.82472724 1.4826738 -0.00092170085 -1.5972195 -0.14169572 0.088788934 0.11711663 1.4538851 1.0580378 -0.72091985 -0.438799 -0.9185113 0.5067795 1.757525 0.081067264 -1.3868048 -1.4234596 -0.56129646 -1.4608815 0.4705593 0.3294674 0.86288095 0.049248863 -2.1529589 -0.17019193 1.9770685 1.5109712 0.13675445 0.30352288 -1.5080446 -2.235192 0.2925798 -1.437135 -0.34921044 -1.9811612 -0.25745907 2.390693 -0.028646417 -1.3377368 -1.204743 -0.47431073 1.4522564 -0.7077322 -0.08585972 0.9090197 0.4355377 2.172659 0.86810434 -0.25018722 -0.049425125 -1.443349 -0.60418534 -1.2564436 -1.9905939 1.863934 -0.9140227 -0.12024489 -1.0109701 -1.3714505 -0.46419734 0.59783685 -1.585596 -0.29100576 -0.640467 -0.4963245 -0.22285134 -0.4573315 -0.82706326 -0.101975895 1.0737436 1.1716367 3.1914275 0.12210454 0.80884486 0.627213 0.569255 0.46473104 0.5172579 0.7226852 -0.56766444 1.6048028 -0.64275336 0.06221477 0.871077 1.0689082 -1.8802028 -0.59549814 1.3150576 -0.9855347 0.75713336
forward 0.21689303 0.15414947 0.84104425 -0.9731251 1.3727272 -0.43587568 -0.6026146 -0.32301947 0.11302143 -1.5431503 0.2592411 0.1970741 0.21325333 1.3009505 -0.4652486 -1.9097453 -0.66950023 1.477384 0.6249865 1.9704622 0.8841529 0.27046204 0.23115814 -0.8374368 -0.037877303 1.891754 0.0840724 1.3247888 1.1374981 0.4283522 -0.601195 0.48909798 -1.0405663 -0.1834264 0.59943765 -1.6735566 0.9000266 0.7480001 -0.51047796 1.4955835 0.3301619 0.018502103 -0.7767327 0.23720552 -1.3493885 -0.92649806 -0.4535415 0.83954793 0.83416975 0.5731241 -0.39922497 -1.5565821 -0.5245815 -0.21060804 -1.2384379 -0.2325302 -0.30212602 1.6371254 -0.4595666 1.9651772 2.7935762 0.062004186 0.16973898 -1.4201775 0.1611246 -0.501184 -0.011334183 0.5065041 1.4317002 -0.45915046 -1.6680872 0.04781816 -2.0453215 -0.53403574 -1.6654583 -2.4021754 -0.11927011 -1.0243101 2.528391 0.09845689 -0.8079993 -0.5511113 2.5503256 1.1425067 0.37065953 -0.19355561 -0.015301101 -1.1522233 1.1973487 0.016927283 0.14962225 1.123035 1.524601 0.46402535 -0.8587576 1.0156791 -0.034931514 -0.351389 0.050821487 0.38564843
spending 0.75407386 -1.6996799 0.947504 0.57322717 0.64236265 -1.9765207 -0.6713287 -1.005276 -0.046759058 -0.9858415 -1.294232 -0.90963876 -0.6960625 0.53379047 -0.00251623 -0.071537696 1.1772729 -1.5557699 1.5298347 1.3536311 -0.8153388 1.8770859 -2.0593321 1.5346764 0.4687846 0.9542866 0.97854966 1.2433383 0.1229033 1.3873858 -1.159771 -1.8444182 -0.74161536 2.421816 2.061118 -2.730213 -1.3299484 -2.0634632 0.419046 -0.07824742 -0.47577038 -0.6645348 0.31081364 1.3516951 -1.130378 0.9144343 0.4224063 0.87078965 -0.8370355 0.58497775 -1.0741636 -0.87686265 -1.827726 0.6039651 -0.51862437 0.58109266 0.79353017 -0.44554028 -1.4643904 -1.6434883 -0.21647248 -1.796381 -1.7348067 1.1537931 0.20423208 -1.0527005 0.89689225 0.2862464 0.031202715 0.92292094 -0.48159438 -1.4775025 2.339761 -1.4718198 -0.43046162 0.091401786 -0.6016982 0.42227957 -1.2662855 0.6773499 -2.5720744 0.70212287 0.70100164 2.0117602 0.74400926 1.6156557 0.058005504 -0.3779341 -0.45601273 1.474077 -0.42128646 -0.7551185 -0.3222494 1.3178169 0.9163331 -0.102561094 -0.31089678 -0.7080336 -0.89083487 0.5792367
insensitive -1.1314838 0.31419033 0.68240255 1.68481 1.0490115 0.381232 0.7833116 -1.4131972 -1.1060498 0.29252392 -1.550426 1.0007814 -0.6137989 -0.9423887 -0.46979302 -0.06518846 0.50078803 1.0477185 -0.42356184 -2.272269 0.06524687 -0.40284503 -1.7737545 -0.46942648 -0.9376783 0.16744964 -0.10809446 -1.5662906 1.4813604 0.6231783 -0.17102018 -1.7158535 -0.42452443 0.0505514 0.40559393 1.9844867 -0.87063324 -0.07077777 -1.0407767 -1.0397017 -0.35040373 -0.95361227 0.88440734 -0.505524 -0.217738 0.23591566 0.4484978 0.49898556 0.45275337 1.8646139 0.41191682 1.0429548 -1.308592 0.6046328 -1.3494972 0.36332867 1.6985384 4.0101285 -1.4360555 0.018439425 -0.34667423 0.85850006 0.20057014 1.8950392 0.5208311 -0.93951046 -0.68847024 -0.1583781 -0.19406974 2.0957985 1.5991794 -2.2089329 0.515685 2.0156133 0.22473957 1.7518542 -1.3179165 -0.24112304 -0.1430008 1.4629107 0.5455499 0.60667664 1.8632716 1.0342591 -0.84925306 0.24735223 0.7851291 -1.1672746 -0.20439622 -0.9712148 -0.36849603 0.7125406 0.09739129 0.48359132 -0.4274392 -0.7454915 0.6021571 0.8649425 0.31302425 -2.64942
intrathecal 0.6976564 -1.3319589 -0.37045762 1.0581276 -1.3058872 0.08196857 1.03225 -2.1156592 0.5893372 1.0781084 0.19816536 0.53379065 1.27918 -0.88765574 0.20825082 0.014475411 1.2842523 0.3371948 0.26573312 0.74674696 1.3150648 -0.7814587 -1.9766755 -2.0024571 2.0717938 1.3471626 1.2863909 -0.20577875 -0.13584246 1.2296783 0.48339328 -1.0417019 -0.417715 0.70086765 -0.19913974 1.6742966 -1.7993569 -1.4858952 -0.37217465 2.6966429 -0.69279593 1.2373881 1.2993613 -0.06445377 0.5817173 0.86941963 -1.5855364 0.16050538 -0.8805376 0.47441512 -1.3517448 -1.6091211 0.688055 -1.3900454 -0.57705426 -0.7791349 0.94460344 0.39215168 0.6767729 0.36866483 -0.051429342 -0.41301903 -0.75292766 1.2777559 0.026255386 1.0898421 -0.42883667 0.44124392 -1.5822084 0.82716334 0.48392677 0.7149191 -0.04466356 -0.46756616 -1.6766329 0.47351173 0.22664504 -0.3657027 -2.2746878 -0.9598082 0.30670252 0.08489537 0.90620625 -1.220956 0.7897404 0.9038851 -0.32813102 -0.38440096 -0.0146467425 -0.7650484 0.271037 0.20838194 0.027129443 0.63617355 0.6690002 0.3992499 -1.9109594 -0.7260499 -0.6987349 0.5869991
ta 0.80985314 0.85018426 0.14916523 1.0363023 -0.68313557 0.58042 -1.6906227 -1.1394495 -1.6646056 1.1398336 0.5682703 2.5123696 0.52420336 -0.7233315 0.5080306 0.5675881 -0.36045823 -0.117116585 0.20151709 0.91541624 0.5067301 0.9189462 1.2345067 1.3338152 0.5217037 3.038146 0.023826204 -1.280328 -2.1894 1.1282821 -0.69330263 -0.88841593 -0.40871415 1.2247237 1.4091465 0.8529208 -1.7269672 0.48840538 -0.8932867 -1.8014067 1.0707531 0.55191517 -1.3779453 0.4741728 -0.8852402 0.81115174 -0.45255965 -1.3583541 -0.8044924 2.0126166 -0.2810725 -1.8098465 0.83686817 -1.5647206 0.48182517 -0.6471448 -1.29304 0.54797024 1.2131658 0.3743984 1.3036692 0.1622197 0.024572574 2.0050116 1.8973515 1.247078 -1.3332016 0.43776572 0.7978782 0.2949025 0.92212474 0.79588455 1.3438499 1.493686 -0.18096921 0.5242843 0.22790776 -1.4469821 -0.32844588 1.1074052 -1.0187551 0.018142628 0.010144295 -1.1471392 -0.70836395 -1.2556397 0.31260467 -0.87084866 -1.8497363 -0.9592466 1.6532274 -0.07649065 0.78659564 0.80308896 -0.15103813 -0.76261246 -1.7018601 0.8527765 0.8118565 0.48229027
dont 0.27737275 1.7019584 -1.1193689 1.0598278 -0.14749494 -0.4117998 1.7305846 -0.38832706 -0.32764727 -0.6305889 -0.3725849 -0.69401085 -1.1071647 -1.2022883 0.21691887 -0.80621684 0.82171595 1.3095897 0.6170976 1.4971883 -2.8082633 1.2956941 -0.46663594 0.26760563 0.71259505 0.76628435 -0.8511455 0.583925 -1.154224 -0.095511094 0.8717046 -0.10805537 -0.823891 2.7515152 -0.3154503 0.05362685 -1.1364003 -0.66082466 0.16590288 -0.85720503 -0.6655053 -0.22658034 1.196612 0.91470015 -0.4354982 -0.00769866 0.49343246 -0.10617268 -0.96850705 -0.80990285 0.23899761 1.5955852 0.34004238 -0.3980833 -1.2187595 -0.37563905 0.23432855 -1.3307468 -0.8559895 0.70894873 0.64380497 -0.6319863 -0.5905391 0.18339856 0.9881887 1.1711506 0.52673227 0.68405193 -0.5171259 0.7522589 -1.6260815 -0.51550364 1.7775538 -0.03086324 0.54045993 1.1127967 -0.7229419 0.32854512 1.4511776 -0.26524147 0.3545423 0.522534 0.5431287 0.5208012 -0.95782864 1.9926214 -0.3016769 -0.2349304 -0.5029725 -0.018101085 0.34958276 -0.41204163 0.50057167 -0.25350302 1.7374636 1.024858 -0.99742913 -0.25512055 -0.09014889 0.0015470055
bottle 0.5812707 -1.617877 -1.3019257 0.69163316 0.12618688 0.24401675 1.1304275 0.17761977 -1.7444568 0.60649234 -0.8166776 0.27760273 -1.7250506 -0.7865663 -0.1582467 0.44196934 0.00042336807 0.3662464 2.19566 -1.4502438 0.53512156 1.1741182 -0.35757795 -0.26621154 -1.6932932 2.2292173 1.0899915 -1.4370965 1.4617192 0.109031826 0.47187492 0.49068287 0.14797793 0.06814932 1.1282754 -0.8546406 -1.372969 0.7536361 2.1080475 -1.1521242 1.4405943 -0.22288005 -0.9333539 -0.5752024 -0.2769517 -1.0471125 -0.49356073 -0.25645062 0.98247296 0.056553103 0.91003466 -0.0071324916 0.5916891 0.17459348 1.3116195 -0.9762646 0.91247964 0.35484782 0.13261381 1.9394728 -0.41784543 -1.0030652 -0.91692764 -0.7984561 0.06725027 -0.1843382 1.1164715 0.9312542 0.6708053 -0.124401405 2.060522 -0.45592454 -0.0802635 0.23877117 -0.63311934 -1.958495 0.46296033 -0.02968778 -1.8899887 -0.28750676 1.6448003 -0.722332 1.659039 -1.4228104 -0.3068776 -0.3287974 1.143771 -0.50464886 -0.78877103 1.0439293 0.25442234 0.6777562 1.3533515 0.25033057 -0.3321029 -1.0619934 1.1236907 0.31626272 -0.16212468 0.25323278
elf -2.6146548 -1.1259655 1.0506433 -1.5688928 1.2389164 -0.07642336 2.243305 -0.91036403 0.31273383 0.11421937 -0.3680668 0.763512 -0.8938934 1.729014 -0.57530516 -0.7867945 1.7884585 -0.4221188 0.46175772 0.4851764 -0.41273358 -0.20942053 0.7047151 1.9232744 -2.5402207 -0.3196098 -0.36145154 0.69326985 -1.0245289 1.7043902 -0.48069206 0.64334226 0.49634868 -2.316546 0.48453277 -1.2251003 0.7223559 -0.57356 -1.1944348 -0.09356576 0.106149964 0.88217515 0.22021212 -0.69001454 -0.74758947 0.9563079 0.33016664 1.4421803 0.82799053 0.33377376 -1.7774038 0.3006173 -0.8961293 -0.5285308 -1.6035774 -0.8868978 0.98010296 0.8213555 -0.90430456 1.3075075 -0.6836644 0.8013325 -0.69552565 -1.3145813 0.10600681 -1.7718734 1.0683773 0.9781833 0.54538375 0.28346753 -0.4708099 -1.303141 -0.062687375 0.34863943 1.2524619 1.0005636 2.745807 0.24145876 1.6123084 0.057365704 -0.580511 -0.28420332 -0.77911437 2.5352774 0.1979685 0.16134398 0.15731506 -0.4126625 0.54373276 -1.0748214 0.88751376 0.2738333 -2.0264153 0.80534405 -0.7422688 1.4293634 0.98212224 -1.2486498 0.26755267 -0.16710326
meaty -0.80036527 0.989005 1.828164 0.50797707 -0.9157502 -0.39061418 1.4501258 -0.56756735 0.8001192 0.80898494 0.55388033 -1.1568458 -0.8443762 -1.4980245 -0.98996353 0.37379542 0.31747216 0.14966437 2.2542288 -1.2510391 0.77046126 0.30247986 0.848032 -0.306008 0.17035182 -0.20288952 -0.32836047 -0.650916 -1.3930244 1.3862311 -0.043024544 0.2303747 1.0884488 -0.96122295 -0.64919615 0.28641093 1.0357053 -0.07406312 -0.83082336 0.43322054 -1.7224449 1.3711104 -1.9782586 -0.11009503 -1.4291823 -2.2586303 0.7068301 1.1106681 0.9100921 -0.009830817 1.0431273 1.9174013 0.9252661 0.5185005 -1.6683857 0.27185526 1.2190506 0.8165913 0.49124876 0.028722685 -0.008840548 0.56585455 0.95175284 -1.0232558 1.6615666 -1.7013891 0.86260074 -0.31882426 -1.0754621 -0.20232335 -0.36511096 2.286191 0.3295305 -2.0453336 0.47240725 2.551968 -0.1387019 0.043392617 0.5771121 0.57550085 0.07104345 -1.6569036 -0.36296973 0.8075153 0.9474725 -0.42859477 0.016358327 -1.2114537 -0.1788345 0.73634964 0.03271359 -0.66923374 0.27743137 0.56110483 0.3526165 0.8457298 2.2987287 -1.5088427 0.2788144 0.2822035
cuz -1.6158224 -0.49686873 0.45331588 1.0739591 0.24994817 -0.63861716 1.5407853 0.11926843 0.85197204 -1.065765 -0.20623438 0.40964678 -2.2457464 -1.2719655 0.12350811 0.10386669 0.5275983 0.7086589 -0.59279865 -0.79351765 1.8452435 -0.22083789 0.7155411 0.31623498 -0.915619 0.33337206 2.1504197 -1.349877 0.28051484 -1.1678433 -0.094819345 0.14137812 -1.1680683 0.1376946 1.0405511 -0.44646543 -1.8898864 0.11680623 -0.37556127 -0.5838609 -1.651367 0.041784126 -1.4173101 0.18883744 0.14188617 -0.074112915 -2.6798322 -0.6702512 0.23610613 1.4018478 -2.0444555 0.3266308 0.89670897 0.2707545 -0.531381 0.8250245 -0.7959312 1.437547 -3.3591292 -0.7348704 0.091445975 0.46782413 -0.5115949 0.65434915 0.9880846 0.14104114 -0.7430969 0.21904525 0.59737223 0.2355267 0.38983554 -0.2744753 0.6425572 -0.6154162 0.48597038 0.26173404 -0.58327943 0.15852499 -0.18343525 -0.027756233 -0.22052486 -1.440638 -0.4398545 -0.14824432 -1.9614977 -1.4024509 -1.4917172 -0.9095357 -0.08555757 1.7320402 -0.6297896 -1.2146823 0.34915456 0.988403 0.7456763 -2.2805521 0.75008935 1.1417637 0.26349077 -0.33951977
land 0.4668024 1.182933 -1.7342235 -0.30141148 -1.1468258 1.1620746 -0.733048 -2.573666 0.36295474 2.2519815 0.11212116 -0.7835287 -0.20537265 0.8826045 -0.8485045 0.26733598 -1.1173884 0.012785498 -1.2225145 0.80809724 -1.4859288 1.5108225 0.407094 1.4729662 -0.023014823 0.061636537 -0.7595926 0.11603494 0.7779595 -0.78182465 -0.3840279 -0.7596667 1.2472504 -0.33574468 -1.056028 0.31715405 -2.916669 1.1154718 2.3001802 -0.026866801 0.73117363 -0.034277074 0.28682506 0.2624728 -0.9163499 -0.1701997 -0.45711192 -0.8695728 0.79472226 -0.47566485 0.098555855 -0.17389832 -0.34033734 -0.30073968 -1.2119842 0.567145 -0.042153385 -0.11607598 -0.45845523 -1.2803783 -0.10088606 0.66968006 -1.3225731 -0.22058739 -0.7504068 -1.491506 -0.2704596 1.5235482 -0.1652982 -0.7445512 0.1960696 -1.1546009 2.6392694 0.78690165 0.09114996 -0.46122319 0.73854095 0.41639122 -2.1329188 0.7983417 1.4859787 2.9317384 -1.0800353 0.14900185 -0.25441787 1.4385812 -0.29332152 0.65340686 2.8339598 1.0290949 0.4179159 0.4195327 0.9824672 0.5320106 -1.2294925 -0.31787977 0.8553209 -1.1137621 0.4717551 1.3112072
anyone 0.15267487 0.36592185 0.9605593 0.8357514 1.4561268 1.3232541 1.4942956 -0.23708612 -0.16438113 1.8832222 -0.44786313 -0.5989518 -1.0318469 -2.403604 0.56674254 -1.0941625 -0.11225765 -0.79364836 -0.7081821 0.42398947 -0.745468 0.99943995 -0.02257554 -1.2556139 1.7476141 -0.11546862 1.1717942 0.34838307 -0.37369254 0.69437474 0.09622369 0.01423447 0.6409704 -0.4705775 1.407932 -0.61387956 0.71231514 -0.30801204 -0.49832937 0.15391256 0.9005342 -0.42878774 0.5026592 0.16818897 -0.15025026 -0.41536388 -0.7417426 -0.33262423 1.6664283 -0.25636092 -1.1938514 0.41284102 -0.40772715 -0.9716737 0.31833547 1.9471074 0.028571114 -0.58691376 0.2208227 -0.49101225 0.14051539 0.49491832 -1.6025327 1.5334591 1.8743517 -2.700011 1.6675422 0.5973178 -0.8219665 -0.29732937 0.8266421 -0.67614186 -0.10981504 -0.18177256 0.06878503 0.8172308 -0.87454265 1.3401656 -0.63135713 -1.9929848 1.8331059 -0.8557426 0.38790995 -0.41479525 1.6922144 -2.0981941 -0.51444167 -0.05480474 1.0250856 -0.37309682 -0.7150815 -0.33637023 -1.5218295 0.056241084 0.39245826 -0.4628696 -0.123389155 0.05076195 1.2557706 -0.26140505
natural 1.4539261 -0.54801786 -0.800607 -0.8754414 -2.624624 0.9203458 1.7920116 0.031853966 0.9713826 -1.1900647 0.9894629 0.51521057 -0.06230942 -2.2839332 -0.03189027 1.3661586 1.9512652 0.14473802 0.63911664 -1.8888091 0.1602881 0.03294711 -1.0458943 0.7679442 -1.0795436 -0.67204726 1.0229994 0.4869205 0.21963775 -0.075920515 -0.27151555 -0.2671362 0.0072846496 0.7109136 1.4975209 -2.8406613 -2.5415165 -0.17625315 -0.10041046 0.18341054 -1.8373048 1.5261252 0.19042115 0.78557026 1.0469748 1.4275051 1.4396486 0.44783422 1.0454198 -1.9703332 -2.4659348 -0.6542935 -0.030862734 -0.8328215 -1.1097088 0.90869796 -0.15191463 -0.53050184 -1.6089058 -0.87624437 0.76020664 -2.0743315 -1.5749962 -0.21354254 -0.43765146 0.13533485 -0.66656214 -1.1507646 -0.13988034 -1.3769417 1.8964087 -0.504404 0.16565958 0.79777455 0.36191112 0.36406973 -1.9673673 -1.4020194 -0.49618986 -0.24225427 -0.65037036 0.49924684 0.997716 0.5725776 -0.19542266 -0.7192469 0.806311 -0.43355146 1.0570107 0.56216633 0.16121943 -0.39382964 0.16597302 1.1835498 0.28018925 1.0975012 -0.56756353 -0.83460915 2.022192 -0.43908024
sunscreen 1.2591989 -0.5693594 0.81588835 -0.8408946 -1.1599984 -1.8162094 0.56335396 0.14100274 -2.4277556 0.07289202 0.9530086 -0.7322515 -0.849987 -0.2555734 -0.33552605 -0.5533654 -0.20255575 -0.08063552 -2.2985468 -0.4027356 -1.1995997 -0.8720199 0.40562356 -2.0657156 0.88031685 2.2054615 0.60559154 0.2215958 0.23901176 -0.67289 0.61905473 -2.4666958 1.2733525 0.7607755 -0.44268125 -0.23956685 -0.67041636 -0.34346867 1.4952455 -0.24296762 -0.6941164 0.08340411 0.05788708 0.067725375 -0.8906204 -0.5025305 -0.6923862 1.0372173 -0.6109914 -1.0596896 0.8233532 1.2191817 -0.6844601 -0.8827613 -2.8637214 1.1288464 1.3231386 0.5564085 -0.77088296 -1.0646305 0.02599761 0.24623884 0.44525072 0.81556386 -0.67378086 0.23540255 0.5387198 0.6463766 0.1462014 1.4398172 -1.6971473 1.4172715 -1.1500827 0.2781517 1.8560504 0.9762709 -0.5719672 -0.7354964 1.1793816 0.25866294 0.53977174 0.007732716 -0.18555844 -0.99435973 0.08660678 2.2286062 -1.3148525 1.603181 -1.1006348 -0.060053747 -0.43185502 -0.55295336 -0.42877457 2.2817798 2.0444293 -1.0584207 0.78854734 1.4212927 0.4343065 0.14934443
ride -0.8154177 0.83397454 0.19636138 1.0717233 -0.533565 0.046100333 -0.9080132 1.5040065 1.0914243 -1.8843478 1.105903 -0.23995328 1.1290584 0.52700746 0.3242207 -0.3140187 1.1811695 0.07807807 -1.6923676 1.0193313 -1.4100481 1.1139816 0.6943712 -0.8940783 0.42912653 1.2144446 -0.4811047 2.5531335 0.3425177 -0.021104181 0.33083543 0.8183193 -0.16353258 0.15674457 -0.38059932 1.5839037 0.9467484 -1.1468694 0.67639697 -0.29918078 0.7553061 -0.24310657 0.025834598 -0.83574367 0.16600335 -2.8307137 -1.0814254 1.4534426 -0.87724286 0.5894529 -0.4718492 0.31362897 -0.38215113 0.115004934 -0.79027796 -0.26419765 -1.5127065 -1.4012678 0.64571315 -1.122243 0.38425678 0.35229194 -1.667249 0.5396042 0.21490932 -0.8828312 -0.2972324 -0.70559233 0.7498065 -1.0291276 -1.2485414 0.6461982 -0.85106325 0.4368194 -0.6285211 -0.62614053 0.12472988 -1.0837773 -1.6643885 -0.5754705 -0.1986492 0.54213196 0.7961517 1.0401762 -1.2921735 -0.77601635 -1.1924156 2.0185952 -0.2819151 0.49038148 -1.60908 1.1513941 -0.61484265 0.5470948 0.122932486 0.12005752 1.0984807 0.49301332 -0.749339 -1.8882399
bird -0.68642104 0.19912852 0.19020218 0.47412 -1.6826732 -0.23788984 -1.2567902 -1.5707989 1.2450219 0.64782435 0.2274378 -1.7269084 -0.62196594 -0.98947704 -1.1296735 0.84256494 1.2475646 -1.337296 0.4989213 -1.5937229 1.4784932 0.3526098 0.8383461 0.3043352 -1.7307326 -0.6612226 -1.5810875 -0.9054238 -0.59188324 0.26482937 -0.7655042 -1.1953962 -0.48253304 1.1255374 0.25995573 0.042953547 0.348961 -0.78138906 -0.788373 2.288887 -0.73866165 0.11238641 0.3603332 -1.4211448 -1.831809 -0.10868734 1.1783576 -0.44659013 0.25550282 0.20237012 -1.0649664 1.240749 -1.2673111 0.14982842 1.1813742 -0.40615693 1.0571166 0.95696265 -0.73322666 -0.8430156 0.18473437 -0.61162055 -0.877288 -0.27834675 -1.5648681 -0.68879443 1.5731019 0.2194427 1.022035 0.44490203 -0.25774348 1.2244383 0.26658738 0.29395464 -0.35465956 0.14949095 1.6215515 -0.069349594 -0.4527168 -1.7744865 -0.13720268 0.2666143 -0.29659158 0.53639394 -0.6035782 -1.2335938 -0.89667445 0.24250194 0.06579106 -0.45055488 -2.1236546 -1.9869323 -0.5536723 -1.6062857 -1.0339358 1.2178409 -0.8173991 0.44986683 0.57455236 0.60990995
messed 0.5183885 0.11830753 -0.05631505 -0.5369595 0.1516189 -0.5485354 0.2606688 -0.5331503 1.1505474 -0.4957988 1.4542681 1.4727582 0.57873595 -0.16657491 -1.0865437 1.324331 -0.8465734 -0.79174006 0.8199891 -0.17427637 -0.5844476 0.8804717 1.1788433 -0.39819694 -0.83806896 0.7500399 -0.87097377 -1.7261759 0.672075 -0.11728183 0.867892 -1.514221 -1.5871643 -1.951941 0.333211 0.98227423 -0.9496341 -0.19877185 0.42613295 -0.9029634 -1.4641579 0.79833525 -0.56188524 0.04376446 2.323431 -1.1709769 0.80558383 0.25767142 2.544639 -0.53998315 -0.19482854 -1.8695604 0.9684575 -0.3930311 -0.9027675 1.4414513 0.5342258 -0.40133873 -1.2232344 -1.003158 0.6002789 -0.59251136 -0.97527176 -0.628766 -1.6466714 2.19895 -0.2656381 0.08699354 -1.6435502 0.023962358 0.91305524 2.5896566 0.5926793 1.6178776 0.7632546 -0.16855988 -0.42514923 0.6049087 0.02514086 -0.16759153 -0.7033038 0.84503716 -0.46736833 1.6522197 0.76852036 -0.70350266 1.922516 0.3824594 0.57708055 0.0060858685 -0.61871004 1.7651856 0.4364274 2.531386 -0.71503973 0.14328483 -1.6574548 -2.0710158 -2.1299398 -0.46805787
life 1.9190319 0.090043396 -0.52526706 1.4280841 1.0621842 1.1391242 -0.6117687 0.5618258 -0.078272864 -0.45942155 0.20173725 -0.7878418 -0.10435202 -0.28591827 0.6625286 -0.005657791 -0.16530167 1.8425786 0.6921056 -0.353415 0.70995784 -0.12532228 -0.094627954 0.2641934 -2.3560596 0.711906 0.45525953 -0.59949857 0.9377712 -0.788854 2.1568737 -0.8724677 -0.40502533 -0.26904523 0.5032109 -0.8918422 0.48367563 -0.30018568 1.9483236 -0.95967615 1.1860108 1.3499416 -0.7004406 -0.01402999 0.16609089 -0.20753586 0.63579047 0.38523027 -0.5974982 1.2406049 0.5284355 -0.7725194 1.361419 -0.80042505 -1.2524023 0.9725447 0.6622011 -0.8824872 -0.6465978 -0.39769876 -1.1235062 0.44376233 0.7876083 0.23467839 0.053092252 -1.3839561 0.7178539 1.0859958 0.003349125 -0.7538763 -1.1025435 -1.519155 0.83386093 0.015011583 0.092918605 1.1235307 1.0583216 0.8881872 0.5368718 -0.24332449 0.748931 0.35952213 -0.44625744 -0.28924054 -0.5047031 2.0788293 -0.26151973 -0.7430271 -0.11779719 -0.23833613 -1.2952183 -1.2809124 -0.911667 0.004369552 -0.92244375 -1.1762527 0.15781832 -0.7970748 0.089217134 -0.0181611
chalky 0.96503955 1.1703556 -0.89816225 1.7243046 0.602625 -1.4164203 -1.2256657 -1.2058576 0.83264774 1.9844898 0.29484853 0.012587428 0.29211327 1.5568159 1.6608787 0.08764573 0.21816686 1.8378816 -0.7137695 -1.2595388 -0.7887987 0.3325261 -0.21062116 -0.42806992 -0.57062906 1.5005546 -0.21499652 0.15375288 0.24653944 -0.05834635 0.59172845 1.1465704 -1.8499936 0.25763088 -1.6613374 1.0410656 1.5328907 0.39934593 -1.7104911 -0.9297067 0.40620038 -0.7805538 -0.44963476 0.23838146 0.30806547 -0.5591555 -0.81833404 0.17136167 2.2172637 -1.7215703 0.93021995 -0.06583715 -0.94782174 0.14820583 0.94602305 -1.0032305 0.5523911 0.7730052 -0.72742826 -0.46705893 1.0798255 0.6108219 -0.9871727 -0.51301044 -0.32206893 0.55693185 0.16833757 2.1069686 0.99274856 -0.8549137 0.19368681 -1.5749975 -0.48360166 -0.3026769 -0.023347573 0.71469986 1.472657 1.3787233 0.12339172 0.3148247 1.5666764 0.5921133 -0.52106035 1.06673 0.9006453 1.1581762 -1.5628668 -0.80415267 -0.710093 0.90853363 -0.44160816 0.30786303 1.9431635 -0.3724701 -0.8542584 -2.181547 1.4469986 -0.8500517 0.44521064 -0.46251515
dashing -0.34422785 -0.72233623 -0.4011939 -0.4550335 0.51030266 -0.16752137 0.08923021 -0.43751535 -0.919891 -0.35586905 -0.58359987 -0.03645079 1.4637859 -1.8194603 1.0415347 -1.3407938 -1.6420254 -0.5997634 -1.4714953 -0.4259775 -0.41096735 -1.118981 2.014552 0.69572645 0.3528539 0.6900423 0.3719347 0.7945997 1.5589865 -0.90838313 0.89578325 -0.3709659 1.6431484 0.38927364 -0.08514295 0.99508286 0.7436822 -0.30154526 0.52250624 -0.7934251 -0.13270433 -0.8095305 0.43785456 -0.4035775 1.5220374 -0.13176273 0.39095736 -0.14021216 -0.3840427 -1.1771152 1.4927634 -1.7239536 1.2941755 -1.1881595 -0.8168578 -0.616268 -1.0930127 0.09700912 -1.6454138 1.7997584 -1.9548538 0.079158805 -0.4248592 0.7494986 2.126894 0.1099371 0.8385674 -0.33017722 -1.8882408 0.342102 -0.4058331 0.6775768 0.05486654 0.39873904 -0.8320881 0.89864755 -2.3219018 -0.015254508 -0.5918561 0.12056828 -0.7443062 -2.0325818 -1.2228411 1.2553062 0.3775665 -0.26983932 -1.020007 -1.6697383 0.71709436 -0.49932605 -0.72309935 0.8789152 0.044911522 0.4051089 0.74462247 -0.48752877 0.90881324 0.39807495 -0.07584534 -1.2865186
estimate 2.0450935 0.16907288 -0.23536922 -0.62243867 0.7523838 -1.0591533 -0.58443946 1.9427098 0.1444151 1.848597 -0.15590382 0.4462688 1.7054583 0.31428638 -1.4332448 1.2311834 -0.36629453 0.79831433 -0.32915023 0.6228509 -1.743629 -0.95872384 -0.94880515 -0.65916145 -1.9232467 1.0287678 -0.8149623 0.0037695598 0.85693264 -0.6654344 0.25698936 0.8001863 0.0051182606 0.3946338 0.5328892 -0.6429209 -1.511683 0.15274072 -1.5515125 2.101298 1.5397131 0.25210202 1.198304 0.04342491 1.9290127 -1.4894828 -2.246875 -0.46402267 -1.1380638 -0.5066429 -0.051335648 -0.24483944 -0.89506114 0.83813334 -0.8484298 1.3441482 1.4557443 -0.5063952 0.6190693 -2.0663254 -2.4123845 -0.90204245 -0.56676126 -0.26909631 -0.44475493 -1.1309772 0.15899117 0.4253293 -0.047634233 0.30404225 -0.6429742 -1.1459851 0.4953251 -0.19100402 -0.6453513 -0.5441457 1.0975984 -0.4140877 0.037624445 1.0121882 1.7277446 0.19323926 0.35689095 -0.5104979 1.9206026 -0.23814446 0.22290057 -0.16182217 0.19885792 -0.42094877 -0.9990653 -0.25295076 -0.093582086 0.82444954 -1.0743537 -0.8686334 1.429156 0.25594795 -0.0380435 -1.5985926
moved 0.12507978 -0.5048846 -1.1012975 0.19763173 1.5745406 0.5750977 -1.5312631 0.1347405 0.17175703 -2.3156185 0.3647964 0.49081844 1.2393386 1.4841553 -0.62598777 0.4209799 0.33593106 -2.034954 -0.36584288 0.012705904 -1.1451178 -0.24187793 -0.44052574 0.35956764 0.42635614 0.5467227 -1.225047 -0.12064218 0.6915251 -0.83578527 0.1109615 0.51775163 0.4994607 1.1148993 -3.2758894 -0.080322266 0.31105325 -1.21849 -0.5939207 0.6444113 -0.6636633 -0.95760727 -0.33731252 0.049282223 -0.47097385 1.1900065 -0.6890721 1.37605 -2.033109 -0.12193766 -0.9073828 -0.7536249 -0.52582073 -0.21892843 -0.50750345 0.11642972 -1.5183104 0.3921074 -0.4011389 -0.8628495 -0.06123015 -0.41094765 -0.31058943 -0.4381266 1.2173493 -0.12391712 -0.934128 0.27775928 -0.9129296 -1.2051355 -0.44752374 -1.1302294 1.0826489 -0.81294286 1.0485785 0.07885789 0.9365772 -0.10543914 -0.59816676 -0.68243265 0.022079322 -1.3965677 0.13113928 0.30251908 -0.17852002 0.30198756 0.49274668 0.274833 -1.1662754 -0.63186467 -0.26231995 -1.0576471 -0.59440666 0.4295374 1.8957516 -0.14825861 0.3413482 0.48877245 -0.9313253 0.06319784
mcdonalds -0.33217984 -0.55698943 0.15988167 0.046495732 -0.046178374 -0.7016272 -0.3986291 0.9783618 0.6297576 -0.8316004 -0.42211244 0.8260614 0.17436029 -1.7235721 -0.19749816 -2.2162275 1.166611 -0.81214994 1.0201027 0.33173448 -0.63693225 -2.1577916 -1.0019162 0.65988815 -0.1650408 0.88923234 -0.7947354 0.12601219 0.05870192 0.93253416 0.008756079 -1.1720773 0.66632783 0.3703479 -1.3847754 -0.6230258 0.8853994 -0.36077783 0.3863779 -0.31626177 -1.5201448 -1.2211922 -0.36766398 1.294134 1.5307655 0.81063825 -3.0151145 0.4332292 0.73525125 -1.0171618 -0.74289095 0.57817525 2.1198812 0.82855105 0.32674992 0.111384034 -1.1773427 -0.5287885 1.1615707 0.39096546 1.068827 0.41724584 0.35682437 0.6502682 0.49037042 0.11064119 -0.68616486 -0.27735168 -0.46903148 0.2783967 -0.29491937 -0.23379044 2.1137905 0.67920196 0.7613557 -1.2758065 -0.047112335 0.29757655 -1.0839471 -0.14430499 -2.1671178 0.1149994 -0.37361833 0.5931435 1.0138304 -1.1583668 -1.6923958 1.0131949 -0.35691628 -0.84379226 0.84544605 -0.36599463 0.13840228 0.28588036 1.9552027 -0.99433327 -1.7714247 -0.56880766 1.4448338 -0.67210484
skins 1.3972151 -0.9411043 3.147562 1.888848 0.2525344 0.30334786 0.15746741 0.12933755 0.19928955 -0.1494377 1.4185579 -0.21264178 -0.30553988 0.09414921 -0.6693189 0.27142417 0.20601486 -0.12995267 -0.6481303 -0.12134188 -0.7922388 0.08559862 -0.44134164 -1.8783629 -0.57768285 -0.19691038 0.053741753 -1.9332166 -0.5331737 0.973984 1.5479484 -1.4008093 -0.44994694 1.034075 0.056829203 0.61228603 -0.85194874 -0.5028168 2.3037348 -1.5773102 -1.2831266 0.10666843 0.84979767 0.33551618 -0.18172005 0.43096116 -0.5067801 0.15086214 -0.46936864 0.84688365 -2.410794 -0.5907605 -0.2854448 1.584309 -1.6792033 0.061994962 0.36649996 1.1555731 0.55994636 -0.6035729 1.6631544 -0.22394861 1.0652786 -0.99983805 -0.5725545 -0.51552993 0.42389822 1.021513 -0.9014835 -0.023302827 -0.723164 -0.19802943 2.026579 -0.4504738 0.554895 1.7411983 0.8347185 -1.1031578 -0.928246 -0.68414646 -0.1180558 1.1672342 1.5006275 0.6269579 1.3461548 -0.43630558 0.16453092 0.47452796 1.1811863 0.7873215 0.6017649 -1.0041473 -0.38753852 -0.8149542 -0.7989018 -0.06551829 0.5395247 1.6540375 0.20993146 0.19192977
